0.052199,-0.002131,0.234362,1.356799,-1.384342,7.930031,-0.146487,-8.056764,-35.010300,0.823647,-0.024029,-0.116904,0.554403
0.053264,-0.002131,0.235427,1.359194,-1.392725,7.937216,0.292973,-7.617304,-33.691920,0.824107,-0.024113,-0.116851,0.553726
0.052199,-0.002663,0.235427,1.342429,-1.377157,7.928833,0.439460,-8.935683,-34.717327,0.822530,-0.023726,-0.116859,0.556080
0.052199,-0.003196,0.235427,1.355602,-1.378355,7.926438,-0.878920,-8.203250,-34.570840,0.821934,-0.023511,-0.117003,0.556940
0.052199,-0.003196,0.234894,1.361589,-1.369972,7.919253,-0.146487,-8.935683,-35.010300,0.825605,-0.024298,-0.116826,0.551486
0.052199,-0.002663,0.235427,1.357997,-1.387935,7.937216,0.732433,-8.642710,-35.010300,0.827968,-0.024960,-0.116644,0.547941
0.052199,-0.002131,0.234362,1.347219,-1.372367,7.926438,0.000000,-8.789197,-34.570840,0.826892,-0.024703,-0.116630,0.549579
0.052731,-0.002663,0.234894,1.352009,-1.392725,7.914463,0.292973,-8.789197,-35.156786,0.828874,-0.025142,-0.116620,0.546567
0.052199,-0.002131,0.236492,1.344824,-1.371170,7.930031,0.000000,-7.324331,-34.277867,0.829903,-0.025238,-0.116510,0.545022
0.052199,-0.001598,0.235427,1.359194,-1.391528,7.926438,-0.732433,-7.177844,-33.838407,0.830066,-0.025243,-0.116632,0.544747
0.052199,-0.001598,0.235960,1.346022,-1.372367,7.922846,0.878920,-8.203250,-34.863813,0.833447,-0.025862,-0.116406,0.539580
0.052731,-0.002131,0.235427,1.375960,-1.380750,7.932426,0.000000,-7.617304,-33.984894,0.832160,-0.025518,-0.116590,0.541540
0.052199,-0.002131,0.235427,1.347219,-1.366379,7.939611,1.025406,-8.056764,-34.424353,0.833495,-0.025950,-0.116346,0.539516
0.052731,-0.002663,0.235960,1.347219,-1.390330,7.937216,0.146487,-7.177844,-34.131380,0.831534,-0.025563,-0.116585,0.542499
0.052731,-0.002131,0.235427,1.369972,-1.362787,7.927636,1.464866,-8.789197,-34.277867,0.831134,-0.025294,-0.116678,0.543105
0.053264,-0.003196,0.235427,1.362787,-1.385540,7.931228,0.878920,-8.789197,-34.863813,0.828390,-0.024969,-0.116746,0.547282
0.052199,-0.002663,0.235427,1.354404,-1.377157,7.938413,0.439460,-8.935683,-34.131380,0.827121,-0.024752,-0.116711,0.549214
0.052199,-0.003196,0.235427,1.361589,-1.387935,7.920450,0.585946,-9.082170,-35.742733,0.827813,-0.024935,-0.116702,0.548165
0.052199,-0.003196,0.235427,1.341231,-1.367577,7.922846,-0.585946,-8.496223,-34.570840,0.827772,-0.024940,-0.116560,0.548256
0.052731,-0.002663,0.235427,1.359194,-1.389133,7.928833,0.000000,-8.789197,-34.570840,0.831898,-0.025852,-0.116489,0.541948
0.052731,-0.002663,0.235427,1.352009,-1.365182,7.926438,1.757839,-7.910277,-34.570840,0.834996,-0.026510,-0.116250,0.537182
0.052731,-0.002663,0.235427,1.349614,-1.391528,7.920450,0.585946,-8.789197,-34.570840,0.830293,-0.025659,-0.116527,0.544405
0.052731,-0.002131,0.235427,1.344824,-1.368775,7.924043,0.878920,-7.910277,-34.277867,0.830740,-0.025661,-0.116476,0.543733
0.052731,-0.003728,0.235960,1.356799,-1.391528,7.928833,0.439460,-7.763790,-34.424353,0.828573,-0.025256,-0.116697,0.547002
0.052199,-0.002663,0.235960,1.356799,-1.383145,7.918055,0.292973,-8.203250,-35.449760,0.827437,-0.024995,-0.116655,0.548740
0.052199,-0.002663,0.235427,1.354404,-1.383145,7.931228,0.732433,-8.349737,-34.424353,0.827086,-0.024954,-0.116585,0.549286
0.052199,-0.002131,0.234894,1.336441,-1.379552,7.930031,0.732433,-8.935683,-34.131380,0.825524,-0.024648,-0.116609,0.551638
0.051666,-0.002131,0.234894,1.360392,-1.390330,7.936018,-0.146487,-8.349737,-34.717327,0.824706,-0.024362,-0.116800,0.552832
0.052199,-0.002131,0.235960,1.352009,-1.381947,7.939611,0.292973,-9.375143,-34.277867,0.826074,-0.024624,-0.116643,0.550809
0.052731,-0.002663,0.235427,1.349614,-1.387935,7.926438,0.292973,-8.789197,-35.156786,0.827798,-0.024967,-0.116589,0.548209
0.052731,-0.002131,0.235960,1.350812,-1.384342,7.939611,0.439460,-8.349737,-33.545434,0.828594,-0.025050,-0.116548,0.547011
0.051666,-0.002131,0.235427,1.359194,-1.383145,7.940808,0.292973,-9.668116,-34.863813,0.828815,-0.025029,-0.116581,0.546670
0.052199,-0.002663,0.234362,1.350812,-1.372367,7.942006,0.146487,-9.521630,-34.131380,0.831308,-0.025551,-0.116423,0.542882
0.052731,-0.002663,0.235960,1.348417,-1.383145,7.928833,0.292973,-8.496223,-34.570840,0.834920,-0.026374,-0.116321,0.537292
0.052731,-0.002131,0.235427,1.356799,-1.373565,7.931228,1.171893,-8.496223,-34.863813,0.836945,-0.026732,-0.116268,0.534126
0.053264,-0.002663,0.235960,1.355602,-1.380750,7.926438,1.025406,-8.056764,-35.010300,0.835899,-0.026577,-0.116341,0.535753
0.052199,-0.002131,0.235960,1.354404,-1.380750,7.927636,0.878920,-7.910277,-33.398947,0.834318,-0.026253,-0.116412,0.538212
0.052199,-0.002131,0.235427,1.341231,-1.373565,7.926438,0.585946,-8.203250,-33.398947,0.833216,-0.025993,-0.116471,0.539916
0.052199,-0.002663,0.235427,1.354404,-1.380750,7.933623,1.318379,-8.349737,-35.303273,0.833549,-0.025989,-0.116621,0.539370
0.051666,-0.002663,0.235427,1.365182,-1.375960,7.919253,0.439460,-8.642710,-32.666514,0.830686,-0.025336,-0.116795,0.543763
0.052199,-0.003196,0.234894,1.355602,-1.380750,7.926438,0.439460,-8.349737,-34.717327,0.832147,-0.025743,-0.116634,0.541540
0.052199,-0.003196,0.235427,1.359194,-1.375960,7.921648,0.439460,-7.763790,-35.303273,0.832618,-0.025845,-0.116595,0.540818
0.053264,-0.003196,0.234894,1.362787,-1.387935,7.936018,1.757839,-8.496223,-34.570840,0.831931,-0.025776,-0.116576,0.541882
0.052199,-0.002663,0.235427,1.350812,-1.380750,7.925241,0.585946,-7.031357,-35.156786,0.827611,-0.024896,-0.116681,0.548476
0.053264,-0.002663,0.235427,1.342429,-1.383145,7.926438,1.025406,-8.349737,-35.303273,0.823748,-0.024053,-0.116864,0.554259
0.051666,-0.003196,0.235960,1.368775,-1.373565,7.919253,-0.292973,-8.789197,-34.570840,0.819756,-0.023103,-0.117144,0.560128
0.052731,-0.002663,0.235427,1.354404,-1.390330,7.925241,0.292973,-9.668116,-34.277867,0.821380,-0.023624,-0.116917,0.557770
0.052199,-0.002663,0.235427,1.334046,-1.374762,7.931228,0.292973,-8.203250,-34.570840,0.822487,-0.023796,-0.116808,0.556152
0.053264,-0.002663,0.235427,1.367577,-1.380750,7.920450,-0.292973,-8.203250,-34.863813,0.821186,-0.023394,-0.117071,0.558034
0.052199,-0.002663,0.235960,1.354404,-1.380750,7.920450,-0.146487,-8.642710,-34.131380,0.822025,-0.023700,-0.116896,0.556821
0.052731,-0.002131,0.235427,1.344824,-1.379552,7.916858,-0.292973,-8.789197,-34.863813,0.823495,-0.024015,-0.116791,0.554652
0.053264,-0.002663,0.235427,1.352009,-1.383145,7.926438,0.439460,-8.056764,-35.596246,0.825774,-0.024430,-0.116758,0.551242
0.052199,-0.002663,0.234894,1.360392,-1.385540,7.918055,0.292973,-8.203250,-33.984894,0.823997,-0.024028,-0.116845,0.553895
0.052199,-0.002663,0.235960,1.353207,-1.374762,7.913265,0.000000,-8.789197,-35.449760,0.823339,-0.023897,-0.116753,0.554897
0.051666,-0.003196,0.235960,1.347219,-1.374762,7.931228,0.439460,-7.470817,-34.424353,0.824186,-0.024117,-0.116682,0.553644
0.052199,-0.002663,0.235960,1.354404,-1.383145,7.928833,0.146487,-8.642710,-34.424353,0.821379,-0.023518,-0.116847,0.557790
0.051666,-0.002131,0.235427,1.352009,-1.371170,7.924043,-0.292973,-9.082170,-33.398947,0.821370,-0.023495,-0.116807,0.557813
0.052199,-0.001598,0.235427,1.350812,-1.368775,7.921648,0.292973,-9.082170,-33.984894,0.824321,-0.024166,-0.116695,0.553437
0.052199,-0.001065,0.234894,1.355602,-1.392725,7.928833,-0.878920,-8.203250,-35.156786,0.825274,-0.024442,-0.116703,0.552002
0.052731,-0.002131,0.235427,1.355602,-1.372367,7.937216,1.318379,-8.056764,-34.424353,0.829392,-0.025210,-0.116466,0.545811
0.052199,-0.002131,0.235427,1.344824,-1.378355,7.921648,-0.439460,-8.642710,-34.424353,0.825373,-0.024457,-0.116669,0.551860
0.051666,-0.002131,0.234894,1.348417,-1.383145,7.928833,1.025406,-9.228656,-33.838407,0.828655,-0.025097,-0.116590,0.546908
0.052199,-0.002131,0.235960,1.352009,-1.386737,7.934821,1.025406,-8.349737,-35.889220,0.827959,-0.024858,-0.116658,0.547957
0.052731,-0.002131,0.235960,1.355602,-1.374762,7.928833,0.146487,-8.056764,-33.838407,0.824795,-0.024082,-0.116816,0.552710
0.052199,-0.003196,0.235427,1.366379,-1.384342,7.922846,-0.146487,-7.763790,-35.596246,0.824699,-0.024098,-0.116844,0.552846
0.051666,-0.003196,0.235427,1.343626,-1.369972,7.924043,0.146487,-8.642710,-35.303273,0.824628,-0.024146,-0.116679,0.552984
0.051666,-0.002131,0.235427,1.347219,-1.390330,7.931228,0.292973,-8.789197,-35.156786,0.824948,-0.024204,-0.116753,0.552489
0.052731,-0.002131,0.235960,1.359194,-1.360392,7.921648,1.025406,-8.935683,-33.545434,0.825022,-0.024023,-0.116783,0.552379
0.052199,-0.002663,0.235427,1.359194,-1.385540,7.920450,-0.732433,-8.056764,-35.303273,0.823082,-0.023804,-0.116888,0.555254
0.051666,-0.002663,0.235960,1.354404,-1.374762,7.930031,0.732433,-7.177844,-33.838407,0.825797,-0.024360,-0.116672,0.551228
0.052199,-0.002663,0.235427,1.347219,-1.379552,7.922846,0.146487,-8.056764,-35.010300,0.821706,-0.023524,-0.116843,0.557309
0.052199,-0.002131,0.235960,1.357997,-1.377157,7.924043,0.732433,-8.935683,-34.424353,0.820463,-0.023195,-0.116933,0.559132
0.052199,-0.002663,0.235427,1.354404,-1.377157,7.933623,-1.171893,-7.324331,-33.984894,0.818363,-0.022788,-0.116978,0.562209
0.052731,-0.002131,0.235427,1.356799,-1.378355,7.928833,-0.146487,-8.935683,-33.838407,0.821517,-0.023464,-0.116846,0.557590
0.052731,-0.002131,0.235427,1.347219,-1.381947,7.934821,-0.146487,-9.228656,-33.838407,0.823493,-0.023913,-0.116738,0.554671
0.052731,-0.001598,0.234894,1.359194,-1.375960,7.930031,0.146487,-8.349737,-33.252461,0.826320,-0.024425,-0.116688,0.550438
0.052199,-0.002131,0.235427,1.350812,-1.375960,7.928833,0.439460,-8.642710,-34.424353,0.827372,-0.024713,-0.116625,0.548856
0.052199,-0.002131,0.235427,1.355602,-1.384342,7.939611,-0.146487,-8.349737,-34.717327,0.827491,-0.024727,-0.116667,0.548668
0.052731,-0.002663,0.235427,1.352009,-1.372367,7.932426,0.146487,-8.056764,-34.717327,0.829407,-0.025085,-0.116581,0.545768
0.052199,-0.002131,0.235427,1.343626,-1.381947,7.933623,0.585946,-8.789197,-33.691920,0.830010,-0.025258,-0.116613,0.544836
0.052199,-0.002131,0.235960,1.361589,-1.380750,7.925241,1.025406,-7.470817,-33.252461,0.830601,-0.025238,-0.116716,0.543914
0.052731,-0.002663,0.235427,1.360392,-1.378355,7.930031,-0.292973,-7.910277,-34.570840,0.827177,-0.024506,-0.116826,0.549117
0.052199,-0.002131,0.235960,1.355602,-1.372367,7.932426,0.878920,-8.789197,-34.570840,0.828917,-0.024915,-0.116721,0.546491
0.052731,-0.002663,0.235427,1.363984,-1.381947,7.926438,0.585946,-8.496223,-34.863813,0.827805,-0.024713,-0.116823,0.548161
0.052199,-0.002131,0.235960,1.353207,-1.374762,7.926438,0.146487,-9.521630,-34.424353,0.826997,-0.024592,-0.116774,0.549395
0.052199,-0.002663,0.235960,1.357997,-1.379552,7.912068,0.732433,-9.228656,-34.131380,0.829595,-0.025153,-0.116700,0.545454
0.052199,-0.002663,0.235427,1.359194,-1.383145,7.927636,0.878920,-8.496223,-33.691920,0.830166,-0.025287,-0.116611,0.544598
0.052731,-0.002131,0.235960,1.353207,-1.377157,7.919253,0.878920,-8.496223,-34.277867,0.829167,-0.025072,-0.116596,0.546131
0.052199,-0.002131,0.235960,1.350812,-1.378355,7.925241,-0.292973,-8.496223,-34.277867,0.827730,-0.024767,-0.116674,0.548304
0.052199,-0.002131,0.236492,1.352009,-1.383145,7.925241,1.025406,-7.763790,-34.424353,0.830721,-0.025361,-0.116580,0.543754
0.052731,-0.002663,0.235427,1.350812,-1.372367,7.930031,-0.292973,-8.203250,-34.277867,0.827551,-0.024588,-0.116748,0.548566
0.052199,-0.002663,0.234894,1.357997,-1.383145,7.934821,-0.146487,-9.228656,-35.010300,0.829972,-0.025113,-0.116723,0.544878
0.053264,-0.002663,0.235960,1.343626,-1.367577,7.936018,1.171893,-7.617304,-34.570840,0.833611,-0.025857,-0.116543,0.539297
0.052731,-0.002131,0.235427,1.369972,-1.384342,7.934821,0.292973,-7.910277,-33.691920,0.830090,-0.025084,-0.116921,0.544656
0.051666,-0.003196,0.235427,1.348417,-1.365182,7.937216,1.025406,-8.056764,-34.424353,0.830306,-0.025174,-0.116826,0.544344
0.052199,-0.002131,0.235427,1.362787,-1.379552,7.926438,0.732433,-7.763790,-33.838407,0.827536,-0.024612,-0.117112,0.548510
0.052199,-0.002663,0.234894,1.359194,-1.360392,7.924043,0.585946,-8.496223,-34.277867,0.824973,-0.024088,-0.117213,0.552359
0.052199,-0.002131,0.234894,1.356799,-1.390330,7.933623,-0.292973,-8.203250,-34.277867,0.823668,-0.024001,-0.117342,0.554280
0.052731,-0.002663,0.235427,1.361589,-1.366379,7.922846,0.878920,-9.082170,-33.984894,0.825227,-0.024232,-0.117302,0.551953
0.053264,-0.001598,0.234894,1.344824,-1.383145,7.913265,-0.146487,-9.814603,-34.131380,0.823993,-0.024146,-0.117398,0.553778
0.052199,-0.003196,0.234362,1.369972,-1.387935,7.909673,0.439460,-8.056764,-35.889220,0.827551,-0.024785,-0.117404,0.548417
0.052731,-0.001065,0.235427,1.355602,-1.346022,7.939611,0.000000,-8.789197,-34.277867,0.826042,-0.024515,-0.117326,0.550716
0.053264,-0.001598,0.237025,1.366379,-1.393923,7.953981,0.439460,-8.349737,-34.717327,0.827868,-0.025220,-0.117498,0.547898
0.053797,-0.004794,0.235427,1.307701,-1.384342,7.872549,0.585946,-9.668116,-33.984894,0.827474,-0.025142,-0.117551,0.548485
0.052199,-0.001598,0.235960,1.381947,-1.390330,7.581550,0.439460,-8.642710,-34.717327,0.828744,-0.025017,-0.117918,0.546492
0.052199,-0.002663,0.235427,1.354404,-1.375960,7.932426,0.146487,-8.056764,-35.596246,0.829136,-0.025160,-0.116915,0.546106
0.052731,-0.002663,0.234894,1.355602,-1.381947,7.925241,0.292973,-7.031357,-33.984894,0.829318,-0.025231,-0.116966,0.545815
0.052731,-0.002663,0.235960,1.365182,-1.389133,7.928833,-0.146487,-8.642710,-35.303273,0.827569,-0.024860,-0.117068,0.548459
0.052199,-0.002131,0.235427,1.350812,-1.389133,7.933623,1.318379,-8.935683,-35.303273,0.829751,-0.025344,-0.116879,0.545170
0.051666,-0.002663,0.235960,1.353207,-1.378355,7.924043,0.732433,-8.642710,-34.131380,0.827174,-0.024663,-0.117059,0.549064
0.052199,-0.003196,0.236492,1.359194,-1.389133,7.926438,1.464866,-8.203250,-33.984894,0.826130,-0.024404,-0.117155,0.550626
0.052199,-0.002131,0.235427,1.366379,-1.372367,7.919253,0.292973,-8.496223,-33.398947,0.821148,-0.023275,-0.117326,0.558040
0.052199,-0.002131,0.236492,1.346022,-1.392725,7.916858,0.000000,-8.789197,-33.691920,0.820594,-0.023292,-0.117293,0.558860
0.052731,-0.002131,0.235427,1.366379,-1.374762,7.919253,-0.146487,-8.349737,-34.424353,0.821504,-0.023242,-0.117320,0.557518
0.052731,-0.001598,0.235960,1.359194,-1.375960,7.927636,0.585946,-8.203250,-33.984894,0.822179,-0.023485,-0.117240,0.556529
0.052199,-0.002131,0.234894,1.349614,-1.386737,7.925241,0.000000,-8.789197,-33.691920,0.819846,-0.023023,-0.117378,0.559950
0.052731,-0.002663,0.234894,1.362787,-1.371170,7.910870,0.000000,-8.496223,-32.813001,0.820555,-0.023010,-0.117430,0.558900
0.054329,0.001065,0.234362,1.368775,-1.357997,7.816266,-0.292973,-8.203250,-33.105974,0.821333,-0.023277,-0.117376,0.557757
0.052199,-0.002131,0.234894,1.363984,-1.373565,7.926438,0.292973,-8.496223,-34.277867,0.823013,-0.023920,-0.117131,0.555300
0.052199,-0.002131,0.235427,1.346022,-1.391528,7.928833,0.878920,-8.496223,-34.863813,0.822632,-0.023996,-0.117102,0.555867
0.051666,-0.002131,0.234894,1.360392,-1.387935,7.937216,0.439460,-8.349737,-34.131380,0.819541,-0.023182,-0.117303,0.560407
0.052199,-0.002131,0.235427,1.355602,-1.380750,7.932426,-0.732433,-8.642710,-34.131380,0.817532,-0.022731,-0.117349,0.563341
0.051666,-0.002131,0.235427,1.362787,-1.389133,7.928833,-0.585946,-9.082170,-33.984894,0.820575,-0.023360,-0.117256,0.558894
0.052731,-0.002131,0.235427,1.362787,-1.383145,7.927636,0.146487,-8.349737,-33.838407,0.824384,-0.024128,-0.117010,0.553279
0.052731,-0.002131,0.235427,1.348417,-1.385540,7.933623,1.025406,-9.228656,-34.131380,0.824861,-0.024275,-0.116926,0.552578
0.052731,-0.002131,0.235960,1.361589,-1.385540,7.932426,1.318379,-8.935683,-33.838407,0.823300,-0.023839,-0.117075,0.554889
0.052199,-0.002663,0.236492,1.360392,-1.378355,7.914463,-0.146487,-8.642710,-34.131380,0.819835,-0.023107,-0.117181,0.560005
0.052731,-0.002131,0.235427,1.352009,-1.391528,7.910870,-0.439460,-8.349737,-33.252461,0.820943,-0.023386,-0.117065,0.558392
0.052199,-0.002131,0.235427,1.365182,-1.368775,7.924043,0.292973,-8.789197,-34.863813,0.823443,-0.023771,-0.116926,0.554711
0.052199,-0.002131,0.235960,1.347219,-1.384342,7.918055,0.585946,-8.203250,-34.277867,0.823483,-0.023951,-0.116860,0.554659
0.052731,-0.002131,0.235427,1.342429,-1.374762,7.925241,-0.292973,-7.910277,-34.277867,0.821509,-0.023414,-0.116981,0.557575
0.052199,-0.001598,0.235960,1.367577,-1.379552,7.927636,-0.439460,-9.521630,-34.131380,0.822246,-0.023483,-0.117107,0.556458
0.052199,-0.002131,0.235427,1.344824,-1.375960,7.927636,0.146487,-8.642710,-34.131380,0.826409,-0.024427,-0.116844,0.550272
0.052199,-0.002663,0.234894,1.362787,-1.367577,7.938413,0.146487,-9.814603,-33.838407,0.827682,-0.024606,-0.116927,0.548329
0.052199,-0.003196,0.234894,1.349614,-1.377157,7.932426,1.611353,-9.228656,-35.889220,0.831195,-0.025512,-0.116784,0.542978
0.052199,-0.002663,0.234894,1.372367,-1.383145,7.931228,-0.585946,-8.203250,-33.984894,0.828347,-0.024869,-0.117008,0.547295
0.051666,-0.002663,0.235427,1.348417,-1.384342,7.922846,-0.146487,-8.642710,-35.596246,0.832509,-0.025872,-0.116673,0.540968
0.051666,-0.002663,0.234362,1.355602,-1.383145,7.931228,0.585946,-8.203250,-34.277867,0.835723,-0.026446,-0.116570,0.535985
0.051133,-0.003196,0.234894,1.360392,-1.368775,7.925241,1.464866,-7.617304,-34.277867,0.836450,-0.026546,-0.116547,0.534848
0.051133,-0.002663,0.235960,1.343626,-1.399910,7.930031,0.439460,-8.642710,-34.717327,0.832739,-0.025852,-0.116711,0.540607
0.052199,-0.002663,0.235427,1.372367,-1.365182,7.927636,0.146487,-8.642710,-35.303273,0.833981,-0.025766,-0.116722,0.538691
0.052731,-0.002131,0.234362,1.348417,-1.389133,7.930031,0.732433,-8.056764,-34.717327,0.836433,-0.026522,-0.116521,0.534883
0.052731,-0.002131,0.234894,1.366379,-1.373565,7.930031,0.878920,-8.496223,-35.156786,0.836253,-0.026295,-0.116619,0.535154
0.052731,-0.002131,0.234894,1.361589,-1.381947,7.920450,0.732433,-8.642710,-34.424353,0.836137,-0.026367,-0.116601,0.535335
0.052731,-0.002663,0.235960,1.354404,-1.374762,7.921648,0.732433,-8.056764,-35.303273,0.837084,-0.026558,-0.116522,0.533862
0.052731,-0.002131,0.235960,1.375960,-1.392725,7.919253,0.878920,-8.203250,-34.277867,0.836869,-0.026502,-0.116588,0.534187
0.052199,-0.002131,0.234362,1.360392,-1.369972,7.927636,0.439460,-8.056764,-33.252461,0.836715,-0.026469,-0.116382,0.534475
0.052199,-0.002131,0.234894,1.356799,-1.383145,7.922846,0.585946,-8.789197,-33.398947,0.838353,-0.026919,-0.116301,0.531897
0.052199,-0.002663,0.234894,1.355602,-1.378355,7.936018,1.611353,-7.763790,-33.838407,0.840990,-0.027436,-0.116147,0.527724
0.052199,-0.002131,0.235427,1.353207,-1.371170,7.925241,1.464866,-8.496223,-32.813001,0.838156,-0.026790,-0.116320,0.532208
0.052199,-0.001065,0.234894,1.369972,-1.374762,7.932426,1.611353,-9.228656,-33.545434,0.837005,-0.026543,-0.116448,0.534001
0.052731,-0.002131,0.234362,1.349614,-1.368775,7.927636,1.318379,-8.056764,-33.545434,0.836188,-0.026479,-0.116422,0.535288
0.052731,-0.002131,0.234894,1.365182,-1.381947,7.928833,0.732433,-7.177844,-34.131380,0.834059,-0.026052,-0.116649,0.538572
0.051666,-0.002663,0.235427,1.362787,-1.377157,7.910870,1.318379,-8.056764,-33.838407,0.831865,-0.025630,-0.116691,0.541966
0.052199,-0.002663,0.235427,1.355602,-1.379552,7.920450,0.292973,-8.496223,-34.570840,0.828724,-0.025026,-0.116736,0.546775
0.052199,-0.002663,0.235427,1.347219,-1.380750,7.926438,0.585946,-8.789197,-34.863813,0.829548,-0.025209,-0.116674,0.545528
0.051666,-0.002663,0.234894,1.357997,-1.383145,7.930031,0.585946,-9.082170,-34.277867,0.829757,-0.025171,-0.116734,0.545200
0.052199,-0.002131,0.234894,1.353207,-1.380750,7.926438,0.292973,-8.496223,-33.984894,0.830721,-0.025347,-0.116653,0.543740
0.052199,-0.002131,0.234362,1.355602,-1.375960,7.925241,0.878920,-8.496223,-33.105974,0.832159,-0.025603,-0.116613,0.541532
0.051133,-0.002131,0.234894,1.356799,-1.373565,7.918055,0.732433,-8.349737,-34.717327,0.831877,-0.025550,-0.116649,0.541961
0.052731,-0.001598,0.234894,1.357997,-1.378355,7.920450,0.732433,-8.349737,-33.838407,0.831276,-0.025437,-0.116668,0.542883
0.051666,-0.001598,0.235960,1.354404,-1.374762,7.922846,0.000000,-8.496223,-32.520027,0.830865,-0.025359,-0.116685,0.543511
0.052199,-0.002131,0.235427,1.357997,-1.381947,7.927636,0.732433,-9.228656,-34.424353,0.834152,-0.026051,-0.116570,0.538446
0.052199,-0.002131,0.234894,1.360392,-1.380750,7.922846,1.757839,-8.496223,-33.691920,0.835688,-0.026348,-0.116487,0.536062
0.052199,-0.002131,0.235427,1.357997,-1.378355,7.933623,0.732433,-8.642710,-33.545434,0.832619,-0.025680,-0.116594,0.540825
0.052731,-0.002663,0.235427,1.360392,-1.379552,7.936018,1.464866,-9.375143,-34.277867,0.833137,-0.025787,-0.116582,0.540025
0.052731,-0.001598,0.235427,1.357997,-1.369972,7.938413,0.732433,-8.642710,-33.838407,0.832032,-0.025574,-0.116620,0.541728
0.052199,-0.002663,0.234894,1.360392,-1.385540,7.926438,0.292973,-9.082170,-33.691920,0.832317,-0.025722,-0.116677,0.541270
0.052199,-0.002663,0.234894,1.357997,-1.380750,7.928833,2.050813,-8.496223,-33.691920,0.835207,-0.026322,-0.116476,0.536815
0.052731,-0.003196,0.235427,1.360392,-1.379552,7.936018,-0.439460,-7.763790,-34.131380,0.830951,-0.025404,-0.116657,0.543384
0.052731,-0.002663,0.234894,1.357997,-1.379552,7.924043,-0.146487,-7.763790,-32.959487,0.834234,-0.026164,-0.116465,0.538336
0.052199,-0.002131,0.234894,1.357997,-1.379552,7.924043,1.611353,-8.349737,-34.424353,0.837465,-0.026902,-0.116270,0.533302
0.051666,-0.001598,0.235427,1.347219,-1.378355,7.922846,0.146487,-8.056764,-34.131380,0.834909,-0.026371,-0.116360,0.537300
0.052731,-0.002131,0.235427,1.360392,-1.373565,7.930031,0.146487,-7.763790,-34.424353,0.837061,-0.026754,-0.116330,0.533929
0.052199,-0.002131,0.235427,1.355602,-1.375960,7.922846,0.878920,-7.617304,-32.813001,0.839059,-0.027293,-0.116217,0.530781
0.052199,-0.002663,0.235427,1.356799,-1.383145,7.930031,1.171893,-8.203250,-33.984894,0.838815,-0.027280,-0.116231,0.531164
0.052199,-0.002131,0.235427,1.357997,-1.374762,7.922846,1.611353,-7.470817,-34.131380,0.838104,-0.027120,-0.116236,0.532293
0.051666,-0.002131,0.235427,1.350812,-1.379552,7.934821,0.585946,-8.496223,-34.277867,0.833993,-0.026310,-0.116415,0.538712
0.052199,-0.002131,0.235960,1.354404,-1.379552,7.927636,0.585946,-8.203250,-34.570840,0.834928,-0.026485,-0.116417,0.537252
0.052731,-0.002131,0.235960,1.348417,-1.386737,7.924043,1.025406,-8.056764,-33.838407,0.835449,-0.026604,-0.116400,0.536440
0.052199,-0.002663,0.235427,1.357997,-1.383145,7.938413,1.318379,-7.470817,-32.373541,0.834298,-0.026243,-0.116504,0.538224
0.052199,-0.001598,0.234894,1.355602,-1.377157,7.925241,0.732433,-8.935683,-32.666514,0.830972,-0.025521,-0.116648,0.543348
0.052199,-0.002131,0.235427,1.353207,-1.383145,7.925241,0.000000,-7.910277,-34.277867,0.831985,-0.025754,-0.116621,0.541790
0.052731,-0.002131,0.235960,1.361589,-1.377157,7.931228,0.585946,-7.617304,-34.863813,0.833785,-0.026082,-0.116552,0.539016
0.052731,-0.002131,0.235427,1.356799,-1.371170,7.928833,1.318379,-9.228656,-35.303273,0.832806,-0.025947,-0.116577,0.540528
0.052731,-0.002663,0.234894,1.352009,-1.381947,7.933623,0.439460,-8.642710,-34.131380,0.831609,-0.025797,-0.116669,0.542355
0.052731,-0.002131,0.235427,1.352009,-1.386737,7.920450,1.025406,-7.470817,-33.545434,0.832886,-0.026060,-0.116655,0.540382
0.052731,-0.002131,0.235427,1.354404,-1.384342,7.924043,1.171893,-7.617304,-33.691920,0.830053,-0.025373,-0.116809,0.544724
0.053264,-0.002131,0.235427,1.355602,-1.380750,7.924043,0.000000,-7.910277,-32.813001,0.826196,-0.024503,-0.117003,0.550554
0.052731,-0.002663,0.236492,1.357997,-1.378355,7.925241,0.585946,-8.789197,-34.277867,0.827346,-0.024750,-0.116982,0.548818
0.052731,-0.002131,0.235960,1.353207,-1.385540,7.921648,0.146487,-8.056764,-32.959487,0.827301,-0.024778,-0.116989,0.548883
0.052199,-0.002663,0.234894,1.361589,-1.375960,7.924043,1.318379,-7.763790,-33.252461,0.828269,-0.024907,-0.116977,0.547418
0.052731,-0.003196,0.235427,1.365182,-1.380750,7.925241,-0.292973,-8.496223,-33.691920,0.823854,-0.024055,-0.117145,0.554042
0.052731,-0.002663,0.235960,1.359194,-1.387935,7.919253,0.000000,-8.496223,-34.863813,0.826447,-0.024713,-0.116936,0.550183
0.052199,-0.002131,0.235427,1.354404,-1.386737,7.924043,-0.585946,-9.082170,-34.570840,0.827912,-0.025017,-0.116792,0.547992
0.052731,-0.002131,0.234894,1.357997,-1.381947,7.920450,1.171893,-8.496223,-34.277867,0.833074,-0.026066,-0.116531,0.540120
0.052731,-0.002663,0.234362,1.354404,-1.391528,7.931228,0.732433,-8.349737,-34.131380,0.831549,-0.025768,-0.116561,0.542472
0.052731,-0.002131,0.234894,1.356799,-1.385540,7.934821,0.732433,-8.935683,-33.545434,0.831175,-0.025609,-0.116545,0.543055
0.052199,-0.002131,0.234362,1.352009,-1.379552,7.926438,1.464866,-8.789197,-34.570840,0.831970,-0.025757,-0.116489,0.541842
0.052199,-0.002663,0.235427,1.348417,-1.380750,7.925241,-0.146487,-8.349737,-34.131380,0.829496,-0.025206,-0.116628,0.545618
0.052731,-0.002131,0.234894,1.353207,-1.378355,7.937216,0.878920,-9.082170,-34.277867,0.832230,-0.025721,-0.116548,0.541432
0.052731,-0.003196,0.234894,1.357997,-1.383145,7.931228,0.585946,-9.668116,-34.570840,0.832630,-0.025798,-0.116592,0.540803
0.052731,-0.002663,0.235427,1.355602,-1.378355,7.925241,1.025406,-8.642710,-34.717327,0.835080,-0.026329,-0.116442,0.537019
0.051666,-0.002663,0.235960,1.348417,-1.381947,7.913265,1.171893,-8.496223,-35.156786,0.834655,-0.026252,-0.116466,0.537677
0.052199,-0.002663,0.235427,1.357997,-1.378355,7.922846,1.171893,-8.789197,-33.691920,0.833149,-0.025812,-0.116564,0.540009
0.052731,-0.002131,0.234894,1.359194,-1.378355,7.928833,0.292973,-8.203250,-34.277867,0.832319,-0.025638,-0.116577,0.541292
0.053264,-0.002131,0.234894,1.363984,-1.378355,7.930031,1.171893,-7.617304,-33.398947,0.833514,-0.025922,-0.116509,0.539452
0.052731,-0.002131,0.234894,1.356799,-1.372367,7.933623,0.439460,-8.349737,-34.131380,0.830605,-0.025388,-0.116594,0.543927
0.052199,-0.002663,0.235427,1.350812,-1.384342,7.934821,1.171893,-9.668116,-32.813001,0.831185,-0.025602,-0.116599,0.543030
0.052731,-0.002131,0.234894,1.356799,-1.378355,7.936018,1.464866,-8.496223,-34.277867,0.831786,-0.025654,-0.116610,0.542103
0.052731,-0.002131,0.234362,1.356799,-1.383145,7.936018,-0.146487,-8.935683,-34.717327,0.828803,-0.025045,-0.116777,0.546645
0.051666,-0.002663,0.234894,1.353207,-1.377157,7.932426,0.732433,-8.056764,-33.838407,0.832073,-0.025737,-0.116639,0.541652
0.052199,-0.002663,0.235960,1.356799,-1.386737,7.930031,1.171893,-9.375143,-34.277867,0.831345,-0.025574,-0.116715,0.542761
0.052731,-0.002131,0.235960,1.360392,-1.378355,7.932426,0.292973,-7.617304,-33.105974,0.830984,-0.025432,-0.116712,0.543320
0.051666,-0.002131,0.235427,1.361589,-1.387935,7.925241,1.171893,-8.789197,-33.691920,0.831313,-0.025547,-0.116693,0.542816
0.052731,-0.002131,0.235427,1.350812,-1.378355,7.931228,0.000000,-8.789197,-34.277867,0.830118,-0.025240,-0.116665,0.544662
0.052731,-0.002131,0.235960,1.365182,-1.378355,7.927636,0.585946,-8.496223,-33.105974,0.833027,-0.025824,-0.116607,0.540187
0.052731,-0.002663,0.235427,1.359194,-1.373565,7.928833,1.318379,-8.349737,-34.131380,0.834219,-0.026162,-0.116485,0.538354
0.052199,-0.002131,0.235427,1.357997,-1.380750,7.922846,0.585946,-9.375143,-32.813001,0.832169,-0.025822,-0.116575,0.541514
0.052731,-0.002131,0.235427,1.349614,-1.384342,7.924043,0.878920,-9.375143,-34.863813,0.834791,-0.026406,-0.116413,0.537471
0.052199,-0.002663,0.235427,1.352009,-1.373565,7.918055,0.292973,-8.496223,-34.277867,0.836103,-0.026609,-0.116392,0.535423
0.052199,-0.002131,0.235960,1.355602,-1.381947,7.925241,0.878920,-8.789197,-35.156786,0.838681,-0.027200,-0.116293,0.531366
0.052731,-0.002663,0.235427,1.360392,-1.380750,7.924043,1.611353,-8.935683,-33.838407,0.839758,-0.027406,-0.116239,0.529665
0.052199,-0.002663,0.235427,1.352009,-1.381947,7.926438,0.732433,-7.470817,-33.545434,0.839063,-0.027300,-0.116221,0.530774
0.052199,-0.002131,0.234894,1.356799,-1.381947,7.927636,2.343786,-8.789197,-35.156786,0.838903,-0.027220,-0.116248,0.531025
0.052199,-0.002131,0.235427,1.356799,-1.380750,7.927636,0.439460,-9.521630,-34.131380,0.834714,-0.026293,-0.116446,0.537589
0.052199,-0.002131,0.235427,1.353207,-1.378355,7.934821,1.025406,-8.349737,-33.838407,0.838120,-0.027025,-0.116268,0.532265
0.051666,-0.002663,0.234894,1.357997,-1.384342,7.919253,0.732433,-8.642710,-34.424353,0.838142,-0.027010,-0.116320,0.532220
0.052199,-0.002663,0.235427,1.349614,-1.374762,7.919253,1.904326,-9.228656,-35.010300,0.839620,-0.027290,-0.116180,0.529901
0.052199,-0.002131,0.235427,1.356799,-1.367577,7.926438,1.318379,-8.056764,-34.131380,0.837970,-0.026906,-0.116319,0.532496
0.052199,-0.003196,0.234362,1.350812,-1.378355,7.924043,1.318379,-8.642710,-33.838407,0.836152,-0.026612,-0.116452,0.535332
0.051666,-0.002131,0.235427,1.361589,-1.373565,7.909673,1.904326,-7.470817,-33.545434,0.835125,-0.026368,-0.116541,0.536925
0.052731,-0.002663,0.235427,1.344824,-1.385540,7.918055,-0.585946,-8.789197,-33.398947,0.829324,-0.025204,-0.116752,0.545853
0.052731,-0.002131,0.235427,1.362787,-1.377157,7.914463,1.171893,-8.789197,-34.277867,0.834829,-0.026249,-0.116568,0.537386
0.052731,-0.002131,0.235960,1.355602,-1.375960,7.924043,0.732433,-9.228656,-34.717327,0.834211,-0.026190,-0.116536,0.538355
0.053264,-0.002663,0.235960,1.348417,-1.389133,7.927636,1.611353,-8.642710,-34.717327,0.835723,-0.026552,-0.116491,0.535996
0.052199,-0.002663,0.235960,1.356799,-1.373565,7.921648,0.585946,-8.496223,-34.277867,0.833234,-0.025871,-0.116677,0.539850
0.052199,-0.002131,0.235427,1.354404,-1.380750,7.930031,0.732433,-8.642710,-33.838407,0.833976,-0.026072,-0.116661,0.538696
0.052199,-0.002131,0.234894,1.371170,-1.386737,7.927636,1.611353,-8.642710,-34.717327,0.834703,-0.026177,-0.116678,0.537562
0.051666,-0.003196,0.235427,1.347219,-1.372367,7.940808,0.146487,-8.935683,-34.717327,0.831975,-0.025627,-0.116670,0.541802
0.052199,-0.002131,0.235427,1.362787,-1.381947,7.931228,0.732433,-9.228656,-34.717327,0.834711,-0.026190,-0.116675,0.537549
0.052731,-0.002663,0.235427,1.361589,-1.383145,7.922846,0.732433,-8.056764,-33.545434,0.836286,-0.026537,-0.116570,0.535100
0.053264,-0.002663,0.235427,1.357997,-1.380750,7.926438,0.732433,-8.056764,-33.545434,0.836587,-0.026606,-0.116506,0.534641
0.052731,-0.002131,0.235427,1.353207,-1.383145,7.927636,0.732433,-7.470817,-34.717327,0.836950,-0.026694,-0.116491,0.534071
0.052731,-0.002131,0.234894,1.361589,-1.386737,7.916858,0.732433,-8.056764,-33.838407,0.835813,-0.026367,-0.116602,0.535841
0.052199,-0.002663,0.234894,1.352009,-1.369972,7.921648,1.025406,-8.935683,-34.424353,0.835865,-0.026328,-0.116540,0.535775
0.052731,-0.002131,0.234894,1.357997,-1.393923,7.934821,1.025406,-8.935683,-35.303273,0.836148,-0.026407,-0.116608,0.535314
0.052199,-0.002663,0.234894,1.371170,-1.374762,7.926438,1.171893,-7.910277,-33.984894,0.836184,-0.026253,-0.116608,0.535266
0.052731,-0.002131,0.234894,1.353207,-1.384342,7.930031,1.318379,-8.056764,-34.131380,0.834214,-0.025945,-0.116601,0.538347
0.051666,-0.002663,0.234894,1.365182,-1.361589,7.921648,0.000000,-8.203250,-33.691920,0.831431,-0.025230,-0.116790,0.542629
0.052731,-0.002131,0.234894,1.359194,-1.378355,7.918055,0.732433,-8.935683,-34.424353,0.833818,-0.025931,-0.116654,0.538951
0.052199,-0.002663,0.235427,1.354404,-1.377157,7.915660,0.439460,-8.642710,-34.717327,0.834789,-0.026156,-0.116595,0.537447
0.052731,-0.002663,0.235960,1.362787,-1.375960,7.928833,0.292973,-7.031357,-32.813001,0.836498,-0.026503,-0.116528,0.534780
0.052731,-0.001598,0.235427,1.365182,-1.379552,7.921648,1.464866,-9.375143,-34.863813,0.836952,-0.026675,-0.116481,0.534071
0.052199,-0.002663,0.234894,1.354404,-1.379552,7.912068,1.464866,-8.496223,-33.984894,0.836551,-0.026648,-0.116439,0.534710
0.052199,-0.002131,0.235427,1.365182,-1.381947,7.928833,0.000000,-7.031357,-34.277867,0.834731,-0.026233,-0.116513,0.537551
0.052199,-0.002663,0.235427,1.347219,-1.379552,7.940808,0.439460,-8.935683,-33.252461,0.835532,-0.026452,-0.116388,0.536321
0.052199,-0.003196,0.235960,1.361589,-1.383145,7.924043,0.292973,-8.203250,-34.863813,0.838461,-0.027012,-0.116352,0.531711
0.053264,-0.003196,0.234362,1.354404,-1.374762,7.927636,0.585946,-9.082170,-34.570840,0.840776,-0.027523,-0.116152,0.528059
0.052731,-0.002131,0.234894,1.348417,-1.375960,7.928833,1.171893,-7.617304,-33.984894,0.843999,-0.028296,-0.116006,0.522885
0.052199,-0.003196,0.234362,1.362787,-1.379552,7.926438,1.025406,-8.056764,-33.545434,0.843233,-0.028099,-0.116155,0.524095
0.052199,-0.002663,0.235427,1.359194,-1.384342,7.930031,2.197299,-7.470817,-34.717327,0.843888,-0.028312,-0.116046,0.523053
0.052199,-0.002131,0.235427,1.353207,-1.381947,7.927636,1.611353,-8.349737,-33.252461,0.838736,-0.027164,-0.116273,0.531286
0.051666,-0.002131,0.235427,1.355602,-1.373565,7.930031,1.611353,-8.935683,-33.545434,0.836777,-0.026683,-0.116398,0.534363
0.051666,-0.002131,0.235427,1.361589,-1.380750,7.919253,0.878920,-8.203250,-33.398947,0.835383,-0.026409,-0.116502,0.536530
0.051133,-0.002131,0.235427,1.355602,-1.375960,7.924043,0.732433,-7.470817,-34.424353,0.835202,-0.026386,-0.116438,0.536828
0.052199,-0.001598,0.234894,1.357997,-1.383145,7.921648,0.585946,-8.789197,-33.984894,0.833775,-0.026079,-0.116505,0.539042
0.051666,-0.001598,0.234894,1.353207,-1.372367,7.925241,-0.439460,-8.642710,-34.717327,0.835216,-0.026362,-0.116402,0.536815
0.052199,-0.002663,0.235960,1.356799,-1.385540,7.922846,1.904326,-7.470817,-33.838407,0.840463,-0.027526,-0.116187,0.528550
0.051666,-0.002131,0.235427,1.354404,-1.369972,7.922846,0.878920,-8.789197,-33.984894,0.835789,-0.026448,-0.116379,0.535922
0.053264,-0.002131,0.235427,1.348417,-1.375960,7.924043,1.757839,-9.082170,-33.984894,0.836517,-0.026655,-0.116376,0.534776
0.052199,-0.002131,0.235960,1.360392,-1.383145,7.932426,1.025406,-8.642710,-34.131380,0.834634,-0.026222,-0.116569,0.537690
0.052731,-0.002663,0.235427,1.355602,-1.385540,7.926438,0.732433,-7.470817,-34.131380,0.834227,-0.026116,-0.116565,0.538327
0.052199,-0.002663,0.235427,1.357997,-1.379552,7.919253,0.732433,-8.935683,-34.424353,0.832630,-0.025705,-0.116636,0.540799
0.053264,-0.002131,0.235427,1.350812,-1.383145,7.932426,1.464866,-8.789197,-33.984894,0.833294,-0.025840,-0.116572,0.539782
0.052731,-0.002131,0.234362,1.355602,-1.371170,7.925241,-0.146487,-8.349737,-33.838407,0.831168,-0.025285,-0.116754,0.543037
0.052731,-0.002131,0.235427,1.366379,-1.379552,7.910870,0.878920,-9.082170,-34.277867,0.834201,-0.025982,-0.116675,0.538349
0.052731,-0.001598,0.236492,1.354404,-1.377157,7.915660,0.585946,-8.203250,-34.570840,0.834946,-0.026201,-0.116538,0.537213
0.052199,-0.002131,0.235960,1.354404,-1.375960,7.920450,0.732433,-7.763790,-34.424353,0.835335,-0.026254,-0.116560,0.536600
0.052199,-0.002663,0.234894,1.371170,-1.377157,7.924043,0.732433,-7.177844,-34.131380,0.834424,-0.026029,-0.116649,0.538008
0.052731,-0.002131,0.235960,1.360392,-1.375960,7.920450,0.439460,-8.349737,-33.252461,0.832258,-0.025690,-0.116621,0.541375
0.052199,-0.002131,0.235427,1.332849,-1.373565,7.918055,0.146487,-8.349737,-34.131380,0.833448,-0.026012,-0.116534,0.539543
0.053264,-0.002663,0.235427,1.371170,-1.385540,7.915660,1.611353,-8.642710,-34.131380,0.835649,-0.026322,-0.116673,0.536083
0.053264,-0.002131,0.235427,1.366379,-1.374762,7.932426,0.439460,-8.349737,-33.838407,0.833220,-0.025863,-0.116637,0.539881
0.053264,-0.002131,0.235960,1.330454,-1.381947,7.938413,0.585946,-8.496223,-33.984894,0.834377,-0.026255,-0.116538,0.538093
0.052731,-0.002663,0.234894,1.356799,-1.363984,7.934821,1.171893,-8.789197,-33.984894,0.835311,-0.026214,-0.116805,0.536586
0.053264,-0.001598,0.235960,1.389133,-1.389133,7.985117,0.439460,-7.470817,-34.131380,0.834684,-0.026206,-0.116962,0.537528
0.052731,-0.003196,0.235960,1.357997,-1.390330,7.918055,2.050813,-8.496223,-34.277867,0.834395,-0.026339,-0.116848,0.537994
0.052199,-0.002131,0.235960,1.360392,-1.384342,7.926438,0.292973,-8.203250,-33.398947,0.829719,-0.025269,-0.117032,0.545189
0.051666,-0.002663,0.234894,1.357997,-1.387935,7.924043,0.292973,-7.910277,-35.156786,0.830591,-0.025441,-0.116981,0.543862
0.051666,-0.002131,0.236492,1.360392,-1.375960,7.932426,0.292973,-8.496223,-33.398947,0.830411,-0.025328,-0.116965,0.544147
0.052731,-0.002131,0.235427,1.356799,-1.391528,7.927636,1.904326,-8.935683,-34.131380,0.831935,-0.025692,-0.116918,0.541806
0.052199,-0.002663,0.234894,1.362787,-1.372367,7.921648,0.146487,-8.056764,-34.131380,0.828069,-0.024744,-0.117108,0.547700
0.052731,-0.001598,0.234894,1.357997,-1.387935,7.919253,0.000000,-9.082170,-34.863813,0.828590,-0.024962,-0.117072,0.546908
0.052199,-0.001598,0.235427,1.357997,-1.379552,7.922846,0.292973,-8.789197,-33.105974,0.831233,-0.025452,-0.116952,0.542886
0.052199,-0.001598,0.235427,1.365182,-1.386737,7.919253,0.439460,-8.349737,-34.424353,0.833503,-0.025917,-0.116883,0.539388
0.052199,-0.002131,0.235960,1.362787,-1.378355,7.909673,2.050813,-7.617304,-33.984894,0.834421,-0.026081,-0.116776,0.537982
0.052731,-0.002131,0.235960,1.353207,-1.391528,7.924043,-0.292973,-8.496223,-35.156786,0.827912,-0.024706,-0.117029,0.547956
0.051666,-0.002663,0.235427,1.368775,-1.378355,7.916858,0.000000,-8.203250,-33.398947,0.830512,-0.025086,-0.116946,0.544007
0.052199,-0.001598,0.235960,1.369972,-1.374762,7.922846,0.878920,-8.203250,-33.691920,0.832723,-0.025617,-0.116730,0.540639
0.052731,-0.001598,0.234894,1.350812,-1.381947,7.927636,0.878920,-7.031357,-33.398947,0.831735,-0.025513,-0.116690,0.542170
0.052199,-0.002663,0.235427,1.369972,-1.371170,7.924043,-0.439460,-7.470817,-34.131380,0.828174,-0.024648,-0.116941,0.547582
0.052199,-0.001598,0.235427,1.348417,-1.384342,7.920450,0.585946,-8.203250,-33.398947,0.830221,-0.025253,-0.116750,0.544485
0.052731,-0.002663,0.235427,1.368775,-1.369972,7.920450,0.732433,-7.763790,-32.959487,0.829940,-0.025041,-0.116840,0.544905
0.052731,-0.003196,0.235427,1.348417,-1.383145,7.924043,0.439460,-8.935683,-33.838407,0.828351,-0.024884,-0.116828,0.547327
0.052731,-0.002663,0.235427,1.369972,-1.385540,7.909673,-0.146487,-8.349737,-34.717327,0.829396,-0.025013,-0.116838,0.545734
0.052731,-0.002131,0.235960,1.347219,-1.372367,7.920450,0.292973,-8.496223,-34.277867,0.831758,-0.025577,-0.116542,0.542165
0.051666,-0.002131,0.234894,1.353207,-1.387935,7.934821,1.318379,-7.763790,-33.252461,0.833230,-0.025875,-0.116577,0.539878
0.052199,-0.001598,0.235960,1.360392,-1.366379,7.922846,1.025406,-8.642710,-34.424353,0.829835,-0.025002,-0.116760,0.545083
0.052199,-0.002663,0.234894,1.365182,-1.391528,7.920450,-0.439460,-8.642710,-34.424353,0.828161,-0.024751,-0.116863,0.547612
0.052199,-0.002663,0.235427,1.352009,-1.360392,7.921648,0.732433,-9.228656,-34.131380,0.832026,-0.025524,-0.116543,0.541756
0.052731,-0.002663,0.235427,1.357997,-1.392725,7.934821,1.171893,-9.082170,-33.691920,0.833109,-0.025881,-0.116576,0.540065
0.052199,-0.002663,0.234894,1.359194,-1.361589,7.921648,1.025406,-8.349737,-33.838407,0.832682,-0.025680,-0.116555,0.540736
0.052199,-0.002663,0.235427,1.343626,-1.395120,7.926438,1.171893,-8.203250,-33.105974,0.831335,-0.025574,-0.116630,0.542794
0.052199,-0.002131,0.235427,1.363984,-1.360392,7.931228,-0.878920,-8.203250,-35.156786,0.829041,-0.024816,-0.116800,0.546290
0.052199,-0.003196,0.235960,1.381947,-1.396318,7.922846,1.464866,-8.789197,-33.984894,0.833890,-0.026071,-0.116586,0.538847
0.052199,-0.003196,0.234894,1.319676,-1.371170,7.916858,0.439460,-8.642710,-35.010300,0.832000,-0.025743,-0.116332,0.541831
0.052199,-0.002663,0.235427,1.371170,-1.383145,7.925241,1.171893,-7.324331,-34.863813,0.832860,-0.025700,-0.116610,0.540449
0.053264,-0.002131,0.235960,1.349614,-1.374762,7.934821,0.732433,-8.935683,-34.424353,0.828567,-0.024856,-0.116640,0.547041
0.052199,-0.003196,0.235427,1.355602,-1.383145,7.925241,0.439460,-8.935683,-34.717327,0.828281,-0.024782,-0.116759,0.547452
0.052731,-0.002131,0.235427,1.360392,-1.378355,7.934821,0.878920,-8.496223,-33.691920,0.828972,-0.024880,-0.116696,0.546414
0.052731,-0.002663,0.235427,1.354404,-1.384342,7.914463,-0.292973,-9.082170,-33.984894,0.827679,-0.024636,-0.116741,0.548372
0.052199,-0.002131,0.235427,1.349614,-1.359194,7.920450,1.025406,-8.642710,-35.303273,0.831689,-0.025422,-0.116521,0.542283
0.052199,-0.001598,0.236492,1.362787,-1.386737,7.918055,0.878920,-9.961089,-34.277867,0.830122,-0.025186,-0.116712,0.544649
0.052199,-0.002131,0.235960,1.355602,-1.366379,7.924043,0.146487,-7.470817,-34.717327,0.831388,-0.025408,-0.116562,0.542736
0.051666,-0.002131,0.235427,1.354404,-1.384342,7.924043,0.878920,-6.738384,-33.984894,0.831346,-0.025490,-0.116606,0.542786
0.052199,-0.002131,0.236492,1.354404,-1.367577,7.921648,0.146487,-8.642710,-33.252461,0.826877,-0.024445,-0.116798,0.549577
0.052199,-0.002663,0.235427,1.362787,-1.378355,7.921648,0.878920,-8.203250,-33.105974,0.828536,-0.024860,-0.116774,0.547059
0.052199,-0.002663,0.235427,1.350812,-1.386737,7.925241,0.292973,-8.789197,-33.398947,0.826835,-0.024559,-0.116768,0.549642
0.052731,-0.002663,0.235960,1.352009,-1.374762,7.932426,0.146487,-9.521630,-34.424353,0.828076,-0.024702,-0.116719,0.547775
0.052731,-0.002663,0.234894,1.362787,-1.381947,7.919253,0.146487,-8.642710,-33.545434,0.830898,-0.025300,-0.116655,0.543470
0.053264,-0.002663,0.235960,1.354404,-1.385540,7.921648,1.318379,-7.763790,-34.131380,0.833308,-0.025847,-0.116447,0.539786
0.052731,-0.002131,0.235427,1.354404,-1.368775,7.933623,0.732433,-8.935683,-33.838407,0.829680,-0.024997,-0.116597,0.545354
0.052731,-0.002663,0.235427,1.362787,-1.373565,7.930031,-0.146487,-8.349737,-34.131380,0.829842,-0.025097,-0.116660,0.545090
0.052731,-0.001598,0.235960,1.354404,-1.378355,7.926438,0.146487,-7.470817,-34.131380,0.832520,-0.025790,-0.116488,0.540996
0.052731,-0.002663,0.234362,1.353207,-1.378355,7.925241,0.146487,-9.814603,-33.252461,0.832985,-0.025884,-0.116495,0.540272
0.052731,-0.002131,0.234894,1.356799,-1.378355,7.920450,0.439460,-7.177844,-34.424353,0.837738,-0.026922,-0.116278,0.532870
0.052199,-0.002131,0.235427,1.372367,-1.381947,7.922846,0.732433,-7.763790,-32.959487,0.837424,-0.026884,-0.116278,0.533365
0.051666,-0.002663,0.235427,1.326861,-1.378355,7.921648,1.757839,-8.496223,-34.570840,0.837586,-0.027053,-0.116075,0.533147
0.051666,-0.002131,0.234894,1.362787,-1.372367,7.926438,0.439460,-7.470817,-34.424353,0.834587,-0.026167,-0.116459,0.537789
0.053264,-0.002663,0.235427,1.355602,-1.377157,7.927636,1.464866,-7.910277,-35.449760,0.834128,-0.026177,-0.116431,0.538507
0.051666,-0.002663,0.235960,1.349614,-1.384342,7.925241,1.025406,-8.349737,-34.717327,0.830025,-0.025351,-0.116634,0.544805
0.052731,-0.002131,0.235427,1.362787,-1.377157,7.921648,0.000000,-8.203250,-33.398947,0.827760,-0.024766,-0.116756,0.548241
0.052199,-0.002131,0.235427,1.353207,-1.385540,7.924043,0.732433,-9.228656,-35.596246,0.829432,-0.025218,-0.116609,0.545718
0.052199,-0.002663,0.235960,1.352009,-1.380750,7.938413,0.732433,-9.228656,-34.717327,0.829428,-0.025147,-0.116594,0.545731
0.052199,-0.002131,0.235427,1.353207,-1.381947,7.936018,1.318379,-8.349737,-33.838407,0.829723,-0.025169,-0.116618,0.545277
0.052199,-0.002131,0.235427,1.353207,-1.378355,7.922846,0.000000,-8.203250,-34.277867,0.826497,-0.024426,-0.116797,0.550149
0.053264,-0.002131,0.234894,1.353207,-1.372367,7.930031,0.439460,-8.056764,-33.545434,0.827461,-0.024596,-0.116777,0.548695
0.052731,-0.003196,0.234362,1.361589,-1.380750,7.933623,0.439460,-8.349737,-34.131380,0.826805,-0.024501,-0.116886,0.549664
0.053264,-0.002131,0.235427,1.356799,-1.377157,7.924043,0.146487,-8.935683,-33.838407,0.826339,-0.024461,-0.116855,0.550373
0.051666,-0.002663,0.234894,1.352009,-1.378355,7.926438,-0.146487,-8.642710,-35.010300,0.828103,-0.024885,-0.116787,0.547710
0.051666,-0.001598,0.235427,1.354404,-1.379552,7.928833,-0.146487,-8.349737,-34.717327,0.830463,-0.025367,-0.116708,0.544120
0.051666,-0.002131,0.235427,1.360392,-1.381947,7.922846,-0.146487,-8.642710,-34.717327,0.832962,-0.025866,-0.116626,0.540281
0.052199,-0.001598,0.234894,1.360392,-1.386737,7.930031,1.464866,-6.152438,-33.691920,0.836473,-0.026619,-0.116401,0.534841
0.051666,-0.002131,0.235427,1.355602,-1.381947,7.910870,0.292973,-8.203250,-33.398947,0.829372,-0.025042,-0.116697,0.545799
0.052199,-0.001598,0.235427,1.355602,-1.381947,7.919253,0.585946,-9.082170,-33.105974,0.830096,-0.025137,-0.116618,0.544710
0.052731,-0.001598,0.235427,1.359194,-1.367577,7.933623,1.611353,-8.935683,-33.252461,0.831403,-0.025351,-0.116548,0.542719
0.052731,-0.002131,0.235960,1.356799,-1.372367,7.927636,0.732433,-8.935683,-34.131380,0.828712,-0.024886,-0.116717,0.546804
0.052731,-0.002131,0.235427,1.355602,-1.373565,7.927636,1.171893,-9.082170,-33.398947,0.828521,-0.024910,-0.116757,0.547083
0.052199,-0.002663,0.235960,1.349614,-1.384342,7.925241,0.732433,-8.642710,-35.010300,0.827097,-0.024662,-0.116862,0.549222
0.052199,-0.002131,0.235960,1.353207,-1.373565,7.921648,0.732433,-8.642710,-34.131380,0.825696,-0.024259,-0.116970,0.551322
0.052199,-0.002131,0.235427,1.359194,-1.379552,7.924043,1.171893,-9.375143,-34.277867,0.824277,-0.023961,-0.117093,0.553428
0.051133,-0.002663,0.235427,1.363984,-1.372367,7.922846,-0.439460,-8.935683,-34.717327,0.822070,-0.023500,-0.117180,0.556702
0.052199,-0.002663,0.235427,1.359194,-1.383145,7.910870,-0.585946,-8.203250,-34.570840,0.824905,-0.024205,-0.116994,0.552501
0.051666,-0.002131,0.235427,1.352009,-1.380750,7.920450,0.292973,-8.203250,-35.156786,0.827915,-0.024845,-0.116779,0.547999
0.052731,-0.002131,0.235427,1.359194,-1.375960,7.928833,0.000000,-9.668116,-34.570840,0.827632,-0.024723,-0.116810,0.548424
0.052199,-0.003196,0.234894,1.352009,-1.374762,7.924043,0.878920,-8.203250,-34.277867,0.831057,-0.025522,-0.116650,0.543218
0.051666,-0.002663,0.235427,1.349614,-1.386737,7.916858,0.146487,-7.763790,-35.010300,0.829445,-0.025207,-0.116757,0.545668
0.051666,-0.002663,0.235960,1.349614,-1.369972,7.931228,0.732433,-8.935683,-33.545434,0.829355,-0.025057,-0.116768,0.545810
0.052731,-0.002663,0.235427,1.365182,-1.384342,7.931228,0.878920,-8.203250,-33.105974,0.829494,-0.025094,-0.116868,0.545574
0.052199,-0.002131,0.234894,1.357997,-1.379552,7.915660,0.439460,-8.349737,-34.131380,0.827934,-0.024799,-0.116862,0.547954
0.052199,-0.002131,0.235427,1.349614,-1.380750,7.921648,0.585946,-7.910277,-33.691920,0.827699,-0.024759,-0.116841,0.548316
0.052199,-0.002131,0.234894,1.362787,-1.377157,7.921648,-0.146487,-8.935683,-34.424353,0.826130,-0.024342,-0.116972,0.550667
0.052199,-0.002131,0.235427,1.355602,-1.378355,7.926438,0.878920,-8.203250,-34.570840,0.828739,-0.024962,-0.116803,0.546741
0.052731,-0.002663,0.234894,1.360392,-1.374762,7.928833,0.439460,-8.349737,-34.424353,0.826464,-0.024471,-0.116927,0.550169
0.052731,-0.003196,0.235427,1.357997,-1.374762,7.930031,0.146487,-9.228656,-35.010300,0.825792,-0.024427,-0.116943,0.551176
0.052731,-0.002131,0.235960,1.355602,-1.380750,7.919253,1.025406,-8.056764,-33.545434,0.827429,-0.024875,-0.116866,0.548712
0.052199,-0.002663,0.235427,1.344824,-1.381947,7.919253,0.732433,-8.056764,-33.838407,0.824403,-0.024250,-0.116996,0.553248
0.052199,-0.002663,0.235427,1.360392,-1.380750,7.924043,-0.439460,-9.521630,-35.303273,0.821738,-0.023591,-0.117193,0.557185
0.052731,-0.002663,0.234894,1.355602,-1.378355,7.924043,0.878920,-9.668116,-34.570840,0.825129,-0.024352,-0.116998,0.552160
0.051666,-0.002131,0.235427,1.357997,-1.375960,7.937216,0.292973,-9.082170,-33.398947,0.824672,-0.024303,-0.117025,0.552839
0.052199,-0.003196,0.235427,1.353207,-1.384342,7.930031,0.292973,-9.668116,-33.691920,0.825909,-0.024634,-0.116989,0.550981
0.051666,-0.002131,0.235427,1.357997,-1.381947,7.926438,1.904326,-8.935683,-32.959487,0.828226,-0.025109,-0.116890,0.547493
0.052199,-0.002131,0.234894,1.354404,-1.386737,7.928833,0.146487,-7.177844,-34.131380,0.823857,-0.024198,-0.117059,0.554050
0.052199,-0.002131,0.235427,1.353207,-1.385540,7.924043,-0.292973,-9.082170,-34.277867,0.821769,-0.023714,-0.117150,0.557144
0.052199,-0.002663,0.235427,1.359194,-1.390330,7.921648,0.146487,-8.935683,-34.717327,0.824390,-0.024210,-0.117046,0.553259
0.052731,-0.002131,0.235427,1.357997,-1.380750,7.918055,0.585946,-9.668116,-33.398947,0.825394,-0.024373,-0.116917,0.551780
0.052731,-0.002663,0.235960,1.356799,-1.381947,7.924043,0.585946,-9.082170,-34.277867,0.826580,-0.024655,-0.116824,0.550008
0.052731,-0.002663,0.235427,1.350812,-1.379552,7.926438,0.878920,-8.789197,-34.277867,0.826760,-0.024714,-0.116781,0.549745
0.052731,-0.001598,0.235960,1.355602,-1.384342,7.926438,0.439460,-8.056764,-33.545434,0.825301,-0.024400,-0.116881,0.551926
0.052199,-0.002131,0.235960,1.350812,-1.383145,7.928833,-0.146487,-9.814603,-34.424353,0.824241,-0.024147,-0.116926,0.553510
0.052731,-0.002663,0.235960,1.354404,-1.381947,7.921648,1.464866,-8.496223,-33.984894,0.827814,-0.024833,-0.116809,0.548146
0.052731,-0.002131,0.235427,1.347219,-1.378355,7.925241,0.000000,-8.203250,-34.277867,0.823835,-0.023968,-0.116979,0.554109
0.052199,-0.002131,0.235427,1.352009,-1.378355,7.920450,-0.585946,-7.910277,-35.156786,0.824205,-0.023981,-0.117066,0.553540
0.052731,-0.003196,0.235427,1.355602,-1.379552,7.927636,0.732433,-8.349737,-34.424353,0.826263,-0.024371,-0.117029,0.550454
0.052199,-0.001598,0.234894,1.356799,-1.384342,7.922846,-0.732433,-7.763790,-32.959487,0.824340,-0.023957,-0.117135,0.553326
0.052199,-0.001598,0.234894,1.356799,-1.371170,7.922846,0.732433,-8.935683,-34.131380,0.827837,-0.024623,-0.116994,0.548081
0.051666,-0.002131,0.235427,1.366379,-1.377157,7.920450,0.292973,-7.910277,-33.984894,0.827393,-0.024564,-0.117078,0.548735
0.052199,-0.002131,0.235427,1.360392,-1.379552,7.912068,0.146487,-8.642710,-34.131380,0.826893,-0.024524,-0.117029,0.549501
0.052199,-0.002131,0.234894,1.355602,-1.383145,7.920450,1.611353,-8.935683,-34.131380,0.828144,-0.024804,-0.116927,0.547623
0.052199,-0.002131,0.234894,1.360392,-1.380750,7.918055,0.878920,-9.375143,-34.863813,0.824422,-0.023952,-0.117095,0.553211
0.052199,-0.002131,0.235427,1.361589,-1.375960,7.919253,-0.585946,-8.203250,-34.277867,0.823172,-0.023686,-0.117107,0.555078
0.052731,-0.002131,0.235427,1.361589,-1.375960,7.906080,0.439460,-8.935683,-34.131380,0.825921,-0.024321,-0.116949,0.550987
0.052199,-0.002663,0.235960,1.357997,-1.387935,7.921648,-0.292973,-7.910277,-33.398947,0.826310,-0.024481,-0.116859,0.550414
0.052199,-0.001598,0.235960,1.352009,-1.377157,7.921648,0.732433,-9.228656,-33.545434,0.828421,-0.024867,-0.116692,0.547251
0.052199,-0.003196,0.235427,1.352009,-1.377157,7.924043,0.439460,-8.935683,-34.131380,0.828911,-0.024929,-0.116714,0.546501
0.052731,-0.002131,0.235427,1.353207,-1.374762,7.918055,-0.146487,-8.935683,-35.010300,0.829933,-0.025126,-0.116688,0.544945
0.052199,-0.002131,0.235960,1.357997,-1.374762,7.915660,0.732433,-9.228656,-35.010300,0.833130,-0.025817,-0.116575,0.540035
0.052731,-0.002131,0.234894,1.355602,-1.381947,7.937216,0.732433,-8.935683,-33.838407,0.834115,-0.026061,-0.116509,0.538516
0.052731,-0.002663,0.235427,1.360392,-1.380750,7.930031,0.878920,-9.082170,-35.156786,0.835216,-0.026265,-0.116490,0.536800
0.052199,-0.002663,0.235427,1.352009,-1.377157,7.931228,0.585946,-8.789197,-34.570840,0.835800,-0.026412,-0.116429,0.535896
0.052199,-0.002131,0.235427,1.355602,-1.375960,7.933623,1.611353,-7.470817,-35.303273,0.837306,-0.026709,-0.116411,0.533530
0.052199,-0.002663,0.234894,1.359194,-1.373565,7.931228,1.464866,-8.789197,-34.570840,0.832415,-0.025646,-0.116700,0.541119
0.053264,-0.002663,0.235427,1.353207,-1.379552,7.916858,1.611353,-9.228656,-34.717327,0.829804,-0.025150,-0.116834,0.545108
0.052731,-0.001598,0.234894,1.360392,-1.381947,7.920450,1.611353,-9.228656,-33.838407,0.826816,-0.024492,-0.117002,0.549623
0.052199,-0.002131,0.235427,1.359194,-1.372367,7.926438,-0.146487,-8.349737,-34.717327,0.823404,-0.023765,-0.117130,0.554726
0.051666,-0.002131,0.235960,1.355602,-1.379552,7.922846,1.318379,-8.056764,-35.303273,0.824338,-0.024034,-0.117110,0.553331
0.052199,-0.001598,0.235427,1.361589,-1.378355,7.924043,-0.878920,-8.203250,-35.156786,0.818741,-0.022820,-0.117362,0.561577
0.053264,-0.002663,0.235960,1.355602,-1.387935,7.916858,-0.439460,-9.814603,-33.545434,0.821377,-0.023405,-0.117237,0.557717
0.052731,-0.002663,0.234894,1.352009,-1.379552,7.934821,-0.146487,-7.470817,-34.424353,0.825841,-0.024272,-0.117027,0.551092
0.052199,-0.002663,0.234362,1.365182,-1.374762,7.928833,0.146487,-8.349737,-33.838407,0.825839,-0.024227,-0.117111,0.551080
0.052199,-0.002131,0.235427,1.354404,-1.383145,7.921648,0.732433,-9.228656,-34.424353,0.826442,-0.024463,-0.117040,0.550179
0.051666,-0.002131,0.235427,1.371170,-1.381947,7.919253,-0.439460,-7.763790,-34.717327,0.826110,-0.024322,-0.117078,0.550675
0.052199,-0.002131,0.235427,1.353207,-1.375960,7.925241,0.000000,-9.375143,-33.984894,0.827927,-0.024783,-0.116844,0.547969
0.051666,-0.001598,0.234894,1.353207,-1.385540,7.937216,1.464866,-8.203250,-33.691920,0.831203,-0.025480,-0.116742,0.542977
0.052199,-0.002663,0.235960,1.362787,-1.384342,7.931228,-0.439460,-8.056764,-34.717327,0.827446,-0.024555,-0.116970,0.548678
0.052199,-0.002131,0.235427,1.361589,-1.386737,7.931228,0.439460,-8.056764,-34.424353,0.830010,-0.025083,-0.116799,0.544805
0.051666,-0.002131,0.234894,1.357997,-1.372367,7.930031,0.292973,-8.789197,-33.398947,0.829563,-0.024925,-0.116772,0.545498
0.053264,-0.002131,0.234894,1.366379,-1.378355,7.916858,0.439460,-9.521630,-33.545434,0.831281,-0.025321,-0.116716,0.542870
0.052199,-0.002663,0.235427,1.356799,-1.375960,7.922846,1.025406,-8.642710,-33.545434,0.833948,-0.025983,-0.116496,0.538780
0.052199,-0.002131,0.235427,1.360392,-1.374762,7.908475,1.611353,-8.056764,-33.838407,0.833465,-0.025901,-0.116506,0.539529
0.051666,-0.002131,0.235960,1.354404,-1.378355,7.912068,1.025406,-9.228656,-34.717327,0.829376,-0.025087,-0.116626,0.545806
0.052199,-0.002131,0.235427,1.357997,-1.372367,7.925241,0.732433,-9.228656,-33.838407,0.828523,-0.024876,-0.116631,0.547109
0.052199,-0.002663,0.235427,1.350812,-1.373565,7.926438,1.025406,-8.056764,-33.545434,0.828914,-0.025036,-0.116596,0.546516
0.051666,-0.002131,0.234894,1.356799,-1.386737,7.920450,-0.878920,-7.324331,-33.984894,0.826199,-0.024478,-0.116758,0.550602
0.052199,-0.002131,0.234894,1.355602,-1.375960,7.930031,0.292973,-8.496223,-34.277867,0.829594,-0.025132,-0.116530,0.545492
0.052199,-0.002663,0.235427,1.353207,-1.378355,7.921648,1.611353,-8.935683,-34.717327,0.830546,-0.025365,-0.116483,0.544042
0.052199,-0.002663,0.235427,1.352009,-1.375960,7.928833,0.732433,-8.642710,-34.131380,0.827241,-0.024653,-0.116614,0.549060
0.052199,-0.002131,0.235427,1.356799,-1.373565,7.928833,0.439460,-7.763790,-34.424353,0.826220,-0.024441,-0.116675,0.550591
0.051666,-0.002663,0.235427,1.346022,-1.381947,7.925241,0.878920,-8.789197,-34.570840,0.824433,-0.024129,-0.116742,0.553263
0.052731,-0.002663,0.235960,1.354404,-1.379552,7.930031,0.000000,-9.082170,-34.570840,0.822289,-0.023567,-0.116872,0.556441
0.052731,-0.002131,0.234894,1.349614,-1.372367,7.939611,0.585946,-9.961089,-33.691920,0.823686,-0.023852,-0.116809,0.554371
0.052731,-0.002131,0.234894,1.356799,-1.379552,7.925241,0.000000,-8.789197,-34.570840,0.824767,-0.024092,-0.116867,0.552740
0.052199,-0.002663,0.235427,1.355602,-1.373565,7.926438,0.292973,-8.789197,-33.984894,0.826210,-0.024407,-0.116790,0.550583
0.052199,-0.002663,0.235427,1.357997,-1.373565,7.918055,0.585946,-10.840009,-34.863813,0.827032,-0.024634,-0.116755,0.549344
0.052199,-0.002131,0.236492,1.350812,-1.374762,7.924043,0.732433,-8.642710,-34.131380,0.829728,-0.025293,-0.116586,0.545271
0.052199,-0.001598,0.235960,1.348417,-1.387935,7.925241,0.000000,-7.910277,-33.984894,0.829297,-0.025207,-0.116649,0.545915
0.052199,-0.002663,0.236492,1.356799,-1.373565,7.921648,0.146487,-8.642710,-33.545434,0.830486,-0.025309,-0.116637,0.544103
0.052199,-0.002663,0.235960,1.360392,-1.379552,7.922846,1.611353,-8.056764,-34.424353,0.832772,-0.025851,-0.116515,0.540599
0.052731,-0.002663,0.235427,1.350812,-1.374762,7.924043,0.585946,-8.496223,-34.277867,0.828364,-0.024948,-0.116646,0.547343
0.052199,-0.002131,0.235960,1.355602,-1.387935,7.926438,-0.439460,-7.763790,-33.838407,0.827864,-0.024865,-0.116706,0.548089
0.052199,-0.002131,0.234894,1.355602,-1.377157,7.934821,1.318379,-8.056764,-33.838407,0.830465,-0.025338,-0.116544,0.544153
0.052199,-0.002131,0.235427,1.360392,-1.377157,7.930031,0.585946,-8.496223,-34.277867,0.826805,-0.024575,-0.116722,0.549696
0.052731,-0.002131,0.235427,1.352009,-1.384342,7.927636,0.292973,-7.910277,-33.984894,0.825962,-0.024459,-0.116711,0.550969
0.052199,-0.002131,0.234894,1.350812,-1.386737,7.918055,0.585946,-8.203250,-34.570840,0.825173,-0.024229,-0.116750,0.552152
0.051666,-0.001598,0.234894,1.349614,-1.375960,7.931228,0.439460,-8.642710,-35.010300,0.823274,-0.023711,-0.116812,0.554989
0.051666,-0.001598,0.234894,1.362787,-1.380750,7.931228,-0.585946,-8.203250,-34.277867,0.822129,-0.023402,-0.116931,0.556672
0.051666,-0.001598,0.234894,1.354404,-1.362787,7.927636,0.732433,-9.521630,-33.252461,0.824615,-0.023922,-0.116755,0.552997
0.052199,-0.002131,0.234894,1.355602,-1.375960,7.927636,0.292973,-8.789197,-34.863813,0.824787,-0.024051,-0.116810,0.552724
0.052199,-0.001598,0.234894,1.352009,-1.372367,7.931228,0.146487,-8.935683,-34.717327,0.824913,-0.024088,-0.116808,0.552534
0.052731,-0.002663,0.235427,1.360392,-1.381947,7.920450,0.146487,-10.107576,-33.545434,0.825939,-0.024310,-0.116838,0.550983
0.052199,-0.002131,0.234894,1.350812,-1.374762,7.930031,1.171893,-7.617304,-34.570840,0.829481,-0.025077,-0.116601,0.545653
0.052731,-0.001598,0.234894,1.356799,-1.378355,7.922846,1.025406,-8.935683,-33.545434,0.825000,-0.024106,-0.116865,0.552392
0.053264,-0.002131,0.235427,1.352009,-1.383145,7.920450,0.732433,-9.521630,-35.596246,0.823000,-0.023684,-0.116952,0.555367
0.052199,-0.002131,0.234894,1.369972,-1.377157,7.922846,0.292973,-9.375143,-33.105974,0.821946,-0.023387,-0.117020,0.556923
0.052731,-0.002131,0.234894,1.344824,-1.378355,7.928833,0.292973,-8.789197,-32.520027,0.823143,-0.023760,-0.116824,0.555178
0.052731,-0.002663,0.234894,1.344824,-1.372367,7.930031,0.292973,-7.617304,-32.813001,0.823849,-0.023817,-0.116902,0.554112
0.052731,-0.002131,0.234894,1.357997,-1.373565,7.928833,0.878920,-8.789197,-34.277867,0.822408,-0.023465,-0.117105,0.556221
0.051666,-0.002131,0.235427,1.359194,-1.380750,7.927636,-0.292973,-8.789197,-34.277867,0.819833,-0.022969,-0.117245,0.560000
0.052731,-0.003196,0.235427,1.357997,-1.374762,7.932426,0.146487,-8.935683,-33.838407,0.821499,-0.023284,-0.117158,0.557558
0.052731,-0.003196,0.234894,1.359194,-1.387935,7.930031,0.732433,-8.349737,-32.959487,0.822140,-0.023467,-0.117146,0.556608
0.052199,-0.002663,0.235427,1.349614,-1.369972,7.928833,-0.292973,-9.082170,-34.277867,0.819812,-0.022925,-0.117191,0.560044
0.052731,-0.002663,0.235427,1.366379,-1.375960,7.918055,-0.878920,-7.910277,-34.570840,0.821916,-0.023361,-0.117213,0.556928
0.052199,-0.002663,0.234362,1.362787,-1.389133,7.924043,-0.439460,-8.349737,-34.717327,0.825059,-0.024128,-0.116989,0.552276
0.053264,-0.001598,0.234894,1.362787,-1.375960,7.913265,0.292973,-8.203250,-34.570840,0.827619,-0.024632,-0.116765,0.548458
0.052199,-0.003196,0.234894,1.343626,-1.369972,7.921648,0.292973,-7.617304,-33.691920,0.827516,-0.024700,-0.116702,0.548623
0.052199,-0.001598,0.234894,1.361589,-1.379552,7.927636,0.585946,-7.910277,-33.691920,0.826619,-0.024495,-0.116852,0.549952
0.052199,-0.002131,0.235427,1.365182,-1.374762,7.927636,-0.292973,-9.082170,-35.742733,0.824858,-0.024155,-0.116887,0.552597
0.052731,-0.002663,0.235427,1.344824,-1.392725,7.933623,0.439460,-8.349737,-34.717327,0.827548,-0.024853,-0.116684,0.548573
0.051666,-0.002131,0.234894,1.344824,-1.372367,7.928833,0.000000,-8.789197,-34.863813,0.827047,-0.024550,-0.116763,0.549324
0.051666,-0.002131,0.235427,1.360392,-1.384342,7.919253,0.439460,-8.349737,-34.424353,0.828836,-0.024866,-0.116814,0.546595
0.051666,-0.002663,0.234894,1.352009,-1.378355,7.921648,0.000000,-8.203250,-35.156786,0.828690,-0.024778,-0.116749,0.546835
0.051666,-0.002131,0.234894,1.355602,-1.384342,7.940808,0.000000,-8.203250,-33.691920,0.829724,-0.024926,-0.116722,0.545264
0.052731,-0.002131,0.235427,1.365182,-1.367577,7.927636,1.025406,-8.349737,-33.838407,0.831553,-0.025197,-0.116664,0.542470
0.052731,-0.002131,0.235427,1.363984,-1.384342,7.915660,0.146487,-7.177844,-34.717327,0.829838,-0.024960,-0.116720,0.545090
0.052731,-0.002663,0.234894,1.355602,-1.373565,7.918055,0.292973,-7.617304,-34.570840,0.828796,-0.024717,-0.116659,0.546696
0.052199,-0.002663,0.235427,1.360392,-1.373565,7.924043,0.292973,-8.789197,-33.398947,0.827797,-0.024524,-0.116698,0.548208
0.052731,-0.001598,0.235427,1.355602,-1.375960,7.922846,1.025406,-6.005951,-34.131380,0.829183,-0.024875,-0.116586,0.546118
0.052731,-0.002663,0.235427,1.356799,-1.374762,7.922846,-0.878920,-7.324331,-34.863813,0.821667,-0.023277,-0.116924,0.557360
0.053264,-0.002131,0.235427,1.355602,-1.371170,7.931228,-0.292973,-9.375143,-34.570840,0.823643,-0.023724,-0.116821,0.554439
0.052199,-0.002131,0.235960,1.352009,-1.381947,7.938413,1.025406,-9.814603,-34.717327,0.826940,-0.024488,-0.116716,0.549498
0.052199,-0.001598,0.235960,1.369972,-1.368775,7.928833,-0.439460,-8.935683,-34.424353,0.826500,-0.024305,-0.116783,0.550153
0.051666,-0.002131,0.234362,1.350812,-1.385540,7.932426,1.171893,-8.789197,-34.277867,0.830442,-0.025329,-0.116510,0.544197
0.051666,-0.002131,0.234894,1.352009,-1.375960,7.938413,0.292973,-8.496223,-33.691920,0.828626,-0.024823,-0.116606,0.546960
0.052199,-0.002131,0.235427,1.362787,-1.375960,7.940808,1.025406,-8.056764,-35.303273,0.829567,-0.024984,-0.116618,0.545522
0.052731,-0.002131,0.234894,1.356799,-1.372367,7.934821,0.439460,-8.935683,-33.545434,0.826388,-0.024370,-0.116728,0.550330
0.052199,-0.001598,0.234894,1.365182,-1.379552,7.925241,-0.439460,-8.349737,-34.424353,0.827077,-0.024585,-0.116723,0.549285
0.052731,-0.002131,0.235427,1.349614,-1.384342,7.930031,0.732433,-8.642710,-34.424353,0.830247,-0.025329,-0.116475,0.544502
0.052199,-0.002131,0.234894,1.352009,-1.378355,7.928833,1.318379,-8.642710,-33.252461,0.829813,-0.025144,-0.116526,0.545161
0.052199,-0.001598,0.235427,1.350812,-1.378355,7.916858,0.585946,-7.910277,-33.984894,0.827360,-0.024583,-0.116663,0.548873
0.052731,-0.001065,0.234894,1.353207,-1.373565,7.931228,0.585946,-8.789197,-33.398947,0.825627,-0.024144,-0.116767,0.551473
