-0.000165,-0.000329,0.000052,-0.045860,0.113608,9.814568,16.036630,-22.319697,37.965155,0.887869,0.003863,0.004723,0.460056
-0.000165,0.000203,-0.001013,-0.048592,0.110004,9.797785,16.312461,-23.668036,36.218801,0.887564,0.003821,0.004740,0.460645
-0.000697,-0.000329,0.000052,-0.039274,0.106343,9.824159,15.789732,-23.308672,38.570613,0.888265,0.003841,0.004723,0.459290
0.000368,0.000203,0.000585,-0.050407,0.107544,9.830153,16.908630,-23.688638,39.283103,0.889590,0.003846,0.004808,0.456719
-0.000165,0.000203,0.000585,-0.046619,0.106340,9.826557,17.569309,-22.688653,38.265683,0.889842,0.003885,0.004794,0.456227
0.000901,0.000203,0.000585,-0.044889,0.116019,9.819364,16.925975,-21.342799,39.646353,0.887964,0.003906,0.004836,0.459872
-0.000165,-0.000329,0.000585,-0.053354,0.112393,9.819364,17.775723,-24.049779,37.685796,0.884997,0.003794,0.004870,0.465555
0.000368,-0.000329,0.000052,-0.055067,0.108756,9.827756,16.367498,-23.104841,38.728185,0.883252,0.003791,0.004857,0.468858
0.000368,0.000203,0.000052,-0.048561,0.111184,9.819364,15.074969,-22.138593,37.826460,0.882289,0.003835,0.004821,0.470669
-0.000697,0.000203,0.000052,-0.036540,0.111184,9.819364,15.228358,-23.899925,38.028481,0.882187,0.003837,0.004807,0.470859
0.000368,-0.000329,0.000052,-0.051180,0.109971,9.822960,15.431874,-24.090262,37.824631,0.883797,0.003798,0.004892,0.467830
0.000901,-0.000862,0.000052,-0.053502,0.116014,9.822960,16.614396,-22.115865,38.122726,0.885615,0.003830,0.004869,0.464378
-0.000165,0.000203,-0.001013,-0.044922,0.108768,9.818165,15.385596,-24.098786,38.602276,0.883586,0.003765,0.004850,0.468228
0.000368,0.000203,0.000585,-0.052399,0.103929,9.821761,14.851211,-23.123306,38.043096,0.885432,0.003779,0.004871,0.464728
0.000368,-0.000329,0.000585,-0.052284,0.112390,9.821761,16.557520,-24.078544,38.532859,0.887555,0.003879,0.004836,0.460661
0.000901,-0.000329,0.000585,-0.047426,0.120849,9.822960,15.812871,-23.304410,38.181791,0.888358,0.003895,0.004801,0.459110
0.000368,-0.001395,0.000052,-0.052118,0.105144,9.816966,16.380993,-22.321474,38.719661,0.889675,0.003790,0.004776,0.456554
0.000368,-0.000329,-0.000480,-0.048430,0.116020,9.818165,16.915378,-23.296954,39.278841,0.889215,0.003822,0.004793,0.457449
0.000368,0.000203,0.000585,-0.047078,0.102733,9.812171,15.077867,-23.309381,37.450424,0.888914,0.003749,0.004791,0.458033
0.000368,0.000203,0.000585,-0.044938,0.112393,9.819364,17.789217,-23.266412,37.677272,0.891566,0.003816,0.004795,0.452849
0.000901,-0.000329,0.000585,-0.046405,0.112386,9.824159,17.379287,-21.714949,38.461009,0.890407,0.003743,0.004830,0.455124
0.000368,0.000203,-0.000480,-0.057601,0.105156,9.807375,16.584509,-22.511811,38.515811,0.887735,0.003632,0.004878,0.460315
-0.000165,-0.000329,-0.000480,-0.048331,0.113606,9.815767,16.837202,-23.864412,37.158280,0.886698,0.003688,0.004830,0.462310
-0.000165,-0.000329,0.000052,-0.056417,0.102711,9.828955,15.094258,-23.696802,37.065863,0.886568,0.003629,0.004844,0.462559
0.000368,-0.000329,0.000052,-0.055873,0.108765,9.820563,16.801521,-21.918781,38.303437,0.889101,0.003747,0.004795,0.457671
0.000368,-0.000329,0.000052,-0.050506,0.105125,9.831352,15.736706,-23.708880,39.352520,0.887322,0.003766,0.004760,0.461110
0.000368,-0.000862,-0.000480,-0.051065,0.108765,9.820563,16.718608,-22.714934,39.478429,0.888980,0.003826,0.004742,0.457906
-0.000165,-0.000329,0.000585,-0.049566,0.116022,9.816966,16.580659,-24.074282,38.144036,0.888274,0.003832,0.004742,0.459273
0.000368,-0.001395,-0.000480,-0.052118,0.109977,9.818165,16.407029,-23.488000,37.954802,0.889171,0.003799,0.004717,0.457535
0.000901,-0.000329,0.000052,-0.042682,0.101515,9.819364,17.231693,-22.295193,37.506915,0.889879,0.003803,0.004704,0.456156
0.000368,0.000203,0.000585,-0.048413,0.112396,9.816966,16.453307,-23.479476,37.177157,0.888042,0.003793,0.004781,0.459722
-0.000165,-0.000329,-0.000480,-0.054258,0.105150,9.812171,16.698367,-23.889984,39.491215,0.888420,0.003765,0.004767,0.458991
0.000368,0.000203,-0.000480,-0.043687,0.111186,9.818165,16.521839,-22.132913,39.678016,0.888952,0.003848,0.004735,0.457959
0.000368,0.000203,0.000052,-0.050734,0.099107,9.812171,15.452116,-22.915212,37.811845,0.887852,0.003794,0.004769,0.460089
0.000368,-0.000329,0.000052,-0.046370,0.120874,9.803779,16.434018,-21.921266,37.937754,0.889213,0.003920,0.004753,0.457452
0.000901,0.000203,0.000052,-0.048955,0.102745,9.802580,17.615587,-22.680129,37.488038,0.888055,0.003797,0.004756,0.459697
-0.000165,0.000203,0.000052,-0.050652,0.109983,9.813370,15.812871,-23.304410,38.181791,0.885655,0.003823,0.004771,0.464304
-0.000165,-0.000329,0.000585,-0.038680,0.111190,9.814568,15.789732,-23.308672,38.570613,0.886372,0.003863,0.004738,0.462934
-0.000165,-0.000329,-0.000480,-0.050273,0.113617,9.807375,17.171920,-23.087084,38.293084,0.887283,0.003808,0.004813,0.461184
0.000368,0.000203,-0.000480,-0.048149,0.107569,9.810972,16.908630,-23.688638,39.283103,0.885877,0.003773,0.004815,0.463879
0.000368,-0.000329,-0.000480,-0.047046,0.109983,9.813370,16.039527,-23.490485,37.589118,0.885270,0.003779,0.004824,0.465036
0.000368,-0.000329,0.000052,-0.052201,0.103934,9.818165,15.859149,-23.295886,37.404146,0.885706,0.003760,0.004841,0.464205
0.000368,-0.000862,0.000052,-0.050801,0.108771,9.815767,15.274636,-23.891401,37.250836,0.886334,0.003831,0.004829,0.463005
0.000368,-0.000862,0.000052,-0.051821,0.102734,9.810972,17.890533,-22.694692,39.409011,0.888726,0.003870,0.004814,0.458397
0.000901,-0.000329,0.000052,-0.048050,0.109988,9.809773,16.511242,-24.087068,39.310504,0.886094,0.003922,0.004845,0.463464
-0.000165,-0.000329,-0.000480,-0.045415,0.117243,9.807375,16.309564,-22.497248,36.594838,0.886637,0.003923,0.004847,0.462424
0.000368,-0.000329,-0.000480,-0.040163,0.114808,9.820563,16.856491,-25.422622,36.397683,0.885784,0.003847,0.004878,0.464056
0.000368,-0.000329,0.000585,-0.060517,0.111186,9.818165,15.179182,-22.737661,39.182163,0.887080,0.003752,0.004945,0.461574
0.000368,0.001268,0.000585,-0.049943,0.108792,9.800182,15.852402,-23.687570,37.408408,0.888528,0.003812,0.004858,0.458781
0.000368,0.000203,0.000052,-0.050734,0.103940,9.813370,17.418818,-22.098109,37.687626,0.890214,0.003856,0.004812,0.455500
-0.000165,-0.000329,-0.000480,-0.051970,0.116022,9.816966,18.122983,-25.222343,38.064266,0.887922,0.003902,0.004823,0.459952
0.000368,-0.000329,0.000052,-0.042633,0.105141,9.819364,17.595345,-23.855179,37.500824,0.887587,0.003884,0.004796,0.460598
0.000901,-0.000329,0.000052,-0.046702,0.114796,9.830153,17.658015,-24.234077,36.338618,0.886480,0.003878,0.004871,0.462726
0.000368,-0.000329,0.000052,-0.051329,0.108759,9.825358,16.875847,-22.913795,40.052224,0.885434,0.003798,0.004892,0.464725
0.000901,-0.000329,-0.000480,-0.047525,0.118430,9.824159,16.557520,-24.078544,38.532859,0.883887,0.003799,0.004901,0.467660
0.000368,0.000736,0.000052,-0.053815,0.107549,9.826557,15.645035,-25.059704,37.240483,0.883814,0.003689,0.004902,0.467797
-0.000165,-0.000329,0.000585,-0.045532,0.112379,9.830153,15.674922,-24.663759,36.847399,0.886264,0.003759,0.004837,0.463141
0.000368,0.000203,0.000585,-0.047754,0.096675,9.822960,16.473549,-22.304426,37.164371,0.888772,0.003733,0.004855,0.458309
0.000368,0.000203,0.000052,-0.045351,0.106342,9.825358,16.476447,-23.475214,36.788334,0.887906,0.003817,0.004905,0.459984
0.000368,0.000203,-0.000480,-0.054110,0.111195,9.810972,16.587407,-23.682599,38.139774,0.888189,0.003824,0.004947,0.459435
0.000368,-0.000329,0.000585,-0.053007,0.108776,9.812171,17.211451,-23.470243,37.519701,0.888592,0.003846,0.004906,0.458656
-0.000165,-0.000329,0.000052,-0.055279,0.108779,9.809773,15.569823,-22.730914,39.159023,0.887874,0.003869,0.004897,0.460045
0.000368,-0.000329,0.000052,-0.056994,0.119641,9.821761,15.688416,-23.880392,36.838875,0.888827,0.003945,0.004855,0.458200
0.000368,0.000203,0.000052,-0.045399,0.118452,9.807375,17.155528,-22.699663,38.677644,0.891048,0.003946,0.004751,0.453867
0.000368,0.000203,0.000052,-0.045860,0.103941,9.812171,17.208554,-22.299455,37.895737,0.890078,0.003848,0.004753,0.455767
-0.000165,-0.000329,0.000052,-0.050355,0.112407,9.808574,16.390637,-23.100579,38.339362,0.888318,0.003864,0.004791,0.459187
-0.000165,-0.000329,-0.000480,-0.048429,0.111187,9.816966,15.271739,-22.720613,37.626873,0.888418,0.003863,0.004775,0.458994
-0.000165,0.000203,0.000052,-0.053337,0.108768,9.818165,16.325956,-22.884669,36.210277,0.889950,0.003877,0.004766,0.456016
0.000368,-0.000329,0.000052,-0.046996,0.113609,9.813370,17.208554,-22.299455,37.895737,0.890264,0.003942,0.004717,0.455403
-0.000165,0.000203,0.000052,-0.046980,0.114818,9.813370,18.607134,-22.465288,37.233648,0.888546,0.003889,0.004728,0.458747
-0.000165,-0.000862,-0.000480,-0.042550,0.111184,9.819364,16.053021,-22.707118,37.580594,0.884449,0.003815,0.004748,0.466597
-0.000165,-0.000329,0.000052,-0.046124,0.108768,9.818165,15.392343,-23.707103,38.598014,0.883754,0.003756,0.004813,0.467913
0.000368,-0.000329,0.001117,-0.050061,0.113594,9.825358,16.830454,-24.256095,37.162542,0.885170,0.003762,0.004833,0.465228
-0.000165,0.000203,0.000585,-0.051970,0.116022,9.816966,16.413776,-23.096317,37.950540,0.885143,0.003721,0.004820,0.465278
-0.000165,-0.000329,-0.000480,-0.046553,0.111175,9.826557,15.281383,-23.499718,37.246574,0.884470,0.003678,0.004781,0.466558
0.000368,0.000736,0.000585,-0.048512,0.109977,9.818165,16.124450,-22.531344,39.705417,0.885978,0.003651,0.004792,0.463688
0.000368,0.000203,0.000052,-0.046980,0.109985,9.812171,16.289322,-23.672298,36.607624,0.885308,0.003620,0.004778,0.464967
-0.000165,0.000203,0.000585,-0.058985,0.106360,9.810972,16.961656,-23.288430,38.501196,0.885506,0.003574,0.004781,0.464590
-0.000165,0.000203,0.000052,-0.047277,0.112394,9.818165,15.449219,-21.744424,38.187882,0.884249,0.003638,0.004706,0.466977
0.000901,0.000203,0.000052,-0.050800,0.103938,9.814568,16.514139,-25.257857,38.934467,0.883381,0.003584,0.004701,0.468618
-0.000165,-0.000329,0.000585,-0.048462,0.103937,9.815767,15.546684,-22.735176,39.547846,0.884528,0.003621,0.004658,0.466451
-0.000165,0.000203,0.000052,-0.047852,0.109993,9.806176,15.908325,-24.458150,36.250464,0.884770,0.003655,0.004660,0.465991
-0.000165,-0.000329,0.000585,-0.046947,0.107569,9.810972,16.864191,-22.297678,37.141232,0.886352,0.003657,0.004628,0.462974
-0.000697,-0.000862,0.000585,-0.042880,0.106343,9.824159,16.150487,-23.697870,38.940558,0.884265,0.003628,0.004650,0.466949
-0.000697,-0.000862,0.000052,-0.047441,0.105141,9.819364,14.883995,-23.898149,37.273975,0.884522,0.003609,0.004713,0.466461
-0.000165,-0.000329,0.000052,-0.049945,0.107555,9.821761,15.438622,-23.698579,37.820369,0.887165,0.003653,0.004730,0.461414
-0.000165,-0.000329,0.000585,-0.052563,0.101509,9.824159,16.506333,-23.079269,36.395250,0.889220,0.003684,0.004711,0.457440
0.000901,-0.000329,0.000052,-0.047046,0.109983,9.813370,17.329158,-23.285945,38.866879,0.889297,0.003772,0.004698,0.457291
0.000368,-0.000862,0.000052,-0.054440,0.106354,9.815767,16.337612,-23.500786,39.121269,0.888321,0.003722,0.004707,0.459184
0.000368,-0.000329,-0.000480,-0.050404,0.103948,9.807375,17.355195,-24.452471,38.102020,0.888951,0.003772,0.004666,0.457963
0.000368,-0.000862,0.000052,-0.043571,0.109980,9.815767,17.241338,-23.074298,37.126616,0.889159,0.003829,0.004649,0.457559
0.000368,-0.000329,0.000052,-0.049681,0.102728,9.815767,16.094564,-22.927289,40.098502,0.888036,0.003771,0.004698,0.459734
-0.000165,0.000203,0.000052,-0.052942,0.118444,9.813370,16.450410,-22.308688,37.553193,0.888357,0.003836,0.004693,0.459113
-0.000165,0.000203,0.000585,-0.044311,0.109991,9.807375,16.256538,-22.897455,37.376745,0.887425,0.003799,0.004626,0.460914
0.000368,0.000736,0.000585,-0.041725,0.108787,9.803779,17.412070,-22.489792,37.691888,0.887299,0.003784,0.004635,0.461156
0.000368,-0.000329,0.000585,-0.049285,0.102738,9.808574,14.608163,-22.549809,39.020329,0.884784,0.003730,0.004671,0.465963
-0.000165,-0.000862,0.000052,-0.046173,0.109975,9.819364,16.931770,-23.684376,38.894280,0.886506,0.003807,0.004650,0.462678
0.000368,-0.000329,0.000052,-0.045810,0.107567,9.812171,14.983298,-23.489417,35.714423,0.885982,0.003791,0.004674,0.463681
0.000368,-0.001395,0.000052,-0.044410,0.107572,9.808574,15.475255,-22.910950,37.423023,0.888324,0.003815,0.004667,0.459177
0.000368,-0.000329,0.000052,-0.045021,0.106349,9.819364,15.833113,-22.129360,38.169005,0.889692,0.003802,0.004709,0.456521
0.000368,-0.000329,0.000585,-0.043208,0.107572,9.808574,17.312766,-22.898524,39.251440,0.889851,0.003802,0.004742,0.456211
0.000368,-0.000329,0.000052,-0.048214,0.102734,9.810972,15.997099,-21.936538,38.738538,0.888562,0.003759,0.004805,0.458716
-0.000165,-0.000329,-0.000480,-0.049318,0.114819,9.812171,17.028176,-22.104856,37.710765,0.887955,0.003797,0.004838,0.459889
0.000368,-0.000329,-0.000480,-0.055544,0.113606,9.815767,16.299919,-21.718143,36.975136,0.885695,0.003733,0.004856,0.464227
-0.000165,-0.000329,-0.000480,-0.056368,0.106337,9.828955,15.465611,-22.131845,37.803321,0.883628,0.003709,0.004817,0.468151
0.000368,-0.000329,-0.000480,-0.050093,0.101510,9.822960,16.187121,-22.910241,38.543212,0.883054,0.003788,0.004774,0.469232
0.000901,-0.000329,0.000052,-0.056498,0.107571,9.809773,15.569823,-22.730914,39.159023,0.882061,0.003868,0.004784,0.471095
-0.000165,-0.000329,0.000052,-0.035978,0.108781,9.808574,13.699529,-21.968497,38.099728,0.881718,0.003949,0.004710,0.471737
-0.000165,-0.000862,-0.000480,-0.052201,0.113600,9.820563,16.670319,-22.886446,36.964783,0.883767,0.003940,0.004787,0.467886
0.000368,0.000203,0.000052,-0.040276,0.117251,9.801381,15.582365,-24.680807,38.402688,0.882112,0.003950,0.004773,0.470999
-0.000165,-0.000329,-0.000480,-0.042187,0.099110,9.809773,15.956615,-24.286638,38.764110,0.883904,0.003883,0.004788,0.467627
0.000368,-0.000329,0.000052,-0.052135,0.113601,9.819364,15.932417,-21.720629,36.609453,0.885046,0.003979,0.004859,0.465461
0.000901,0.000203,-0.000480,-0.051079,0.113626,9.800182,15.993249,-23.499009,38.366763,0.883511,0.003986,0.004837,0.468368
-0.000165,-0.000329,0.000052,-0.044147,0.112411,9.804978,15.609354,-23.114073,38.385640,0.883650,0.004002,0.004784,0.468106
0.000368,-0.000329,0.000052,-0.039404,0.112410,9.806176,15.556329,-23.514281,39.167547,0.884037,0.004004,0.004808,0.467374
0.000368,0.000203,0.000052,-0.049434,0.116025,9.814568,16.524736,-23.303702,39.301980,0.885043,0.003965,0.004867,0.465468
0.000368,-0.000329,-0.000480,-0.039701,0.119652,9.813370,15.221610,-24.291609,38.032743,0.884424,0.003943,0.004844,0.466643
0.000901,-0.000862,0.000585,-0.051887,0.107566,9.813370,15.255347,-22.333192,38.011433,0.886879,0.003840,0.004881,0.461960
0.000368,-0.000329,0.000585,-0.052333,0.108764,9.821761,16.564267,-23.686861,38.528597,0.887654,0.003870,0.004874,0.460469
0.000368,-0.000862,0.000052,-0.044658,0.113608,9.814568,16.968403,-22.896747,38.496934,0.887977,0.003912,0.004856,0.459846
0.000901,-0.000862,0.000585,-0.058047,0.111187,9.816966,17.051315,-22.100594,37.321942,0.886801,0.003838,0.004915,0.462110
0.000901,-0.000329,-0.000480,-0.050256,0.109993,9.806176,15.895783,-22.508257,37.006799,0.884262,0.003841,0.004879,0.466950
0.001433,-0.000862,0.000052,-0.050553,0.107569,9.810972,16.193868,-22.518558,38.538950,0.883544,0.003833,0.004875,0.468307
0.000901,0.000203,0.000052,-0.045186,0.108762,9.822960,15.900692,-23.516057,39.922053,0.882185,0.003822,0.004886,0.470862
0.000901,-0.000329,0.000052,-0.050850,0.105145,9.815767,15.071119,-23.701064,37.454686,0.882186,0.003804,0.004909,0.470860
-0.000697,0.000203,0.000052,-0.053880,0.123283,9.809773,15.956615,-24.286638,38.764110,0.883804,0.003865,0.004895,0.467815
-0.000165,-0.000329,0.000052,-0.045068,0.113626,9.800182,16.781279,-23.093831,38.316223,0.884921,0.003830,0.004819,0.465700
0.000901,-0.000329,-0.000480,-0.044377,0.109989,9.808574,16.564267,-23.686861,38.528597,0.883585,0.003766,0.004859,0.468231
0.000368,-0.000329,0.000052,-0.048066,0.108779,9.809773,15.556329,-23.514281,39.167547,0.882968,0.003703,0.004904,0.469394
0.000368,0.000203,0.000052,-0.052711,0.116033,9.808574,15.248599,-22.724875,38.015695,0.883705,0.003691,0.004923,0.468005
-0.000165,-0.000329,-0.000480,-0.052284,0.112390,9.821761,16.102197,-23.869383,36.426913,0.884227,0.003646,0.004877,0.467018
0.000368,0.000203,0.000585,-0.055791,0.105142,9.818165,14.534896,-24.125067,39.815022,0.884702,0.003629,0.004859,0.466118
-0.000165,0.000203,0.000585,-0.046075,0.112394,9.818165,16.506333,-23.079269,36.395250,0.888219,0.003728,0.004782,0.459380
-0.000165,0.000203,0.000052,-0.050537,0.108778,9.810972,17.165173,-23.478767,38.297346,0.888045,0.003677,0.004799,0.459717
0.000368,-0.000329,0.000052,-0.048955,0.107578,9.803779,16.006743,-22.715642,38.358239,0.887239,0.003677,0.004794,0.461270
0.000368,-0.000329,0.000052,-0.053962,0.112407,9.808574,17.070605,-23.658804,36.561345,0.887243,0.003665,0.004803,0.461263
0.000368,-0.000329,0.000052,-0.056500,0.101501,9.830153,17.090846,-22.483753,36.548559,0.886597,0.003635,0.004765,0.462503
0.000901,-0.000862,0.000052,-0.046800,0.107544,9.830153,16.827557,-23.085307,37.538578,0.884403,0.003707,0.004738,0.466686
0.000901,-0.000329,-0.000480,-0.052613,0.107549,9.826557,15.124145,-23.300857,36.672779,0.882849,0.003660,0.004774,0.469618
0.000368,-0.000329,-0.000480,-0.046024,0.101521,9.814568,16.774531,-23.485515,38.320485,0.884057,0.003682,0.004728,0.467341
0.000368,-0.001395,-0.000480,-0.053089,0.102733,9.812171,16.253641,-21.726667,37.752781,0.882982,0.003705,0.004771,0.469368
0.000368,-0.000329,-0.000480,-0.042039,0.114821,9.810972,15.329673,-23.328205,39.760220,0.880404,0.003742,0.004791,0.474185
0.000368,-0.000862,0.000052,-0.039766,0.105152,9.810972,14.664086,-23.320390,37.862386,0.880762,0.003644,0.004828,0.473520
-0.000165,-0.000329,-0.001013,-0.056663,0.105150,9.812171,16.016388,-23.494747,37.977941,0.882346,0.003602,0.004922,0.470563
0.000368,0.000203,-0.000480,-0.045959,0.111189,9.815767,15.819618,-22.912727,38.177529,0.882138,0.003670,0.004892,0.470952
0.000368,0.000203,-0.000480,-0.049681,0.102728,9.815767,16.407029,-23.488000,37.954802,0.881546,0.003611,0.004920,0.472059
0.000368,0.000203,-0.000480,-0.048099,0.106362,9.809773,14.564782,-23.729121,39.421938,0.880505,0.003641,0.004943,0.473997
0.000368,-0.000862,-0.000480,-0.049417,0.117234,9.814568,14.761551,-24.311142,39.222350,0.882670,0.003667,0.004947,0.469953
0.000368,-0.000862,-0.000480,-0.059711,0.106343,9.824159,14.608163,-22.549809,39.020329,0.885549,0.003593,0.004937,0.464506
0.000368,-0.000329,-0.000480,-0.056269,0.108756,9.827756,17.051315,-22.100594,37.321942,0.887401,0.003662,0.004877,0.460957
-0.000165,0.000203,-0.000480,-0.050504,0.111195,9.810972,15.419332,-22.140369,38.580966,0.884994,0.003660,0.004855,0.465563
0.000368,0.000203,0.000585,-0.054655,0.109974,9.820563,16.830454,-24.256095,37.162542,0.884829,0.003644,0.004843,0.465877
-0.000165,0.000203,0.000052,-0.054061,0.105155,9.808574,17.287616,-23.065774,36.348971,0.884727,0.003654,0.004792,0.466070
0.000368,-0.000329,0.000052,-0.049994,0.103929,9.821761,16.081955,-25.044433,36.439699,0.882508,0.003701,0.004769,0.470259
0.000368,-0.000862,0.000585,-0.052333,0.118430,9.824159,15.782985,-23.700356,38.574875,0.883955,0.003762,0.004755,0.467532
-0.000165,-0.000862,-0.000480,-0.048660,0.103932,9.819364,16.276780,-21.722405,37.363959,0.884781,0.003701,0.004704,0.465968
-0.000165,0.000203,0.000052,-0.048543,0.118463,9.798983,16.190018,-24.081030,38.167176,0.882601,0.003718,0.004743,0.470084
-0.000165,0.000203,0.000052,-0.044198,0.102716,9.825358,17.401473,-24.443947,37.324375,0.882865,0.003645,0.004706,0.469589
0.000368,-0.000862,0.000052,-0.049961,0.106346,9.821761,14.463467,-24.300841,37.690199,0.881637,0.003661,0.004753,0.471890
-0.000165,-0.000329,0.000052,-0.049681,0.102728,9.815767,16.807315,-24.260357,37.551364,0.884856,0.003704,0.004732,0.465826
0.000901,-0.000329,0.000052,-0.050338,0.103949,9.806176,14.467317,-22.738370,38.061973,0.884831,0.003769,0.004739,0.465872
0.000901,-0.000329,0.000052,-0.044328,0.108782,9.807375,16.489941,-22.691847,36.779810,0.887055,0.003837,0.004706,0.461625
-0.000697,0.000203,-0.001013,-0.054242,0.111192,9.813370,16.187121,-22.910241,38.543212,0.886248,0.003795,0.004736,0.463171
-0.000697,0.000203,-0.000480,-0.042402,0.112396,9.816966,16.039527,-23.490485,37.589118,0.886022,0.003847,0.004678,0.463604
-0.000165,-0.000329,0.000052,-0.041808,0.112410,9.806176,15.599710,-22.334968,38.765939,0.886648,0.003826,0.004703,0.462404
0.000368,-0.001395,0.000585,-0.052957,0.102736,9.809773,15.448266,-24.477684,37.440071,0.886823,0.003768,0.004749,0.462069
-0.000165,0.000203,0.000585,-0.041068,0.107566,9.813370,16.843949,-23.472729,37.154018,0.889662,0.003865,0.004727,0.456579
-0.000165,-0.000862,0.000585,-0.045959,0.111189,9.815767,16.571015,-23.295178,38.524335,0.889778,0.003855,0.004785,0.456352
0.000368,-0.000329,0.000052,-0.056729,0.114815,9.815767,17.789217,-23.266412,37.677272,0.890151,0.003828,0.004827,0.455625
0.000368,-0.000329,0.000052,-0.049450,0.109983,9.813370,16.236296,-24.072506,37.389531,0.888663,0.003812,0.004772,0.458520
-0.000165,0.000736,0.000052,-0.053304,0.111186,9.818165,17.067707,-22.488015,36.937382,0.890169,0.003822,0.004756,0.455589
0.000368,-0.000329,0.000052,-0.046008,0.107563,9.815767,15.990351,-22.328221,38.742800,0.888894,0.003848,0.004707,0.458073
0.000368,-0.000862,0.000585,-0.048708,0.111209,9.800182,16.647179,-22.890708,37.353605,0.888898,0.003851,0.004728,0.458064
0.000368,-0.000329,0.000052,-0.042204,0.107567,9.812171,17.218198,-23.078560,37.515439,0.888484,0.003825,0.004736,0.458867
-0.000165,-0.000329,0.000052,-0.043637,0.105145,9.815767,17.001187,-23.671590,37.727813,0.887269,0.003782,0.004805,0.461212
-0.000165,-0.000329,-0.000480,-0.055346,0.113611,9.812171,17.148781,-23.091346,38.681906,0.886798,0.003784,0.004877,0.462115
0.000368,0.000203,-0.000480,-0.046009,0.112396,9.816966,15.986501,-23.890693,38.371025,0.885320,0.003781,0.004846,0.464941
0.000368,-0.000329,0.000052,-0.055692,0.107561,9.816966,18.064163,-23.280974,39.598246,0.886292,0.003746,0.004853,0.463086
-0.000165,0.000203,0.000052,-0.051065,0.108765,9.820563,16.023135,-23.103064,37.973679,0.883500,0.003770,0.004835,0.468390
0.000901,-0.000862,0.000585,-0.049499,0.106357,9.813370,16.620190,-24.457442,37.370653,0.883146,0.003807,0.004819,0.469057
0.000368,0.000203,0.000052,-0.052184,0.109975,9.819364,15.418380,-24.873629,37.833155,0.883260,0.003827,0.004828,0.468843
0.000368,0.000203,-0.000480,-0.043192,0.118447,9.810972,15.672025,-23.492971,37.223435,0.885804,0.003891,0.004767,0.464020
-0.000165,-0.000329,-0.001013,-0.049236,0.111197,9.809773,15.556329,-23.514281,39.167547,0.886980,0.003805,0.004768,0.461768
0.000368,0.000203,0.000585,-0.046848,0.109988,9.809773,17.578953,-23.467758,37.885384,0.888625,0.003820,0.004752,0.458595
0.000368,0.000203,0.000585,-0.050899,0.106353,9.816966,15.965201,-22.495471,35.840332,0.887348,0.003793,0.004766,0.461061
0.000368,-0.000329,0.000585,-0.054030,0.111168,9.831352,17.786320,-22.095623,38.053309,0.887243,0.003840,0.004744,0.461263
-0.000165,-0.000329,0.000052,-0.048891,0.111176,9.825358,15.168585,-24.691816,38.814650,0.883681,0.003833,0.004721,0.468049
-0.000165,-0.000329,-0.000480,-0.052415,0.107553,9.822960,16.453307,-23.479476,37.177157,0.886549,0.003874,0.004685,0.462596
-0.000165,0.000203,-0.000480,-0.039420,0.116034,9.807375,15.471405,-24.473422,37.051248,0.886613,0.003950,0.004648,0.462472
0.000368,-0.000329,0.000052,-0.045004,0.107558,9.819364,16.236296,-24.072506,37.389531,0.889354,0.003903,0.004661,0.457180
-0.000165,-0.000329,0.000052,-0.040936,0.112402,9.812171,17.143872,-22.083546,35.766652,0.891024,0.003930,0.004669,0.453915
0.000368,-0.000862,0.000052,-0.052102,0.106353,9.816966,17.812356,-23.262150,37.288450,0.889324,0.003860,0.004739,0.457237
0.001433,-0.000862,0.000052,-0.055527,0.114815,9.815767,17.939708,-23.856956,38.255330,0.887608,0.003893,0.004744,0.460559
-0.000697,-0.000862,0.000052,-0.041018,0.111192,9.813370,16.023135,-23.103064,37.973679,0.885993,0.003857,0.004684,0.463660
0.000901,0.000736,-0.000480,-0.053370,0.106351,9.818165,17.171920,-23.087084,38.293084,0.886192,0.003820,0.004756,0.463278
0.000368,-0.000329,0.000585,-0.047491,0.111181,9.821761,16.192915,-25.251818,37.791139,0.884553,0.003873,0.004704,0.466399
0.000368,-0.000329,0.000052,-0.046569,0.105133,9.825358,16.888389,-24.863688,39.295889,0.886504,0.003888,0.004682,0.462682
-0.000165,0.000203,0.000052,-0.051114,0.105139,9.820563,18.570500,-23.252917,37.630994,0.887380,0.003941,0.004689,0.460998
0.000368,-0.000329,0.000052,-0.041645,0.113594,9.825358,17.135286,-23.874713,38.690430,0.884071,0.004014,0.004686,0.467312
0.000368,-0.000862,0.000052,-0.043029,0.114797,9.828955,16.599948,-25.632492,37.383439,0.882942,0.003964,0.004726,0.469442
-0.000165,-0.000329,0.000585,-0.047194,0.113604,9.816966,16.026032,-24.273852,37.597642,0.884286,0.003921,0.004751,0.466904
0.000368,-0.000329,0.000052,-0.043950,0.106346,9.821761,17.204704,-23.861927,37.523963,0.885434,0.003924,0.004743,0.464724
0.000368,0.000203,0.000052,-0.045860,0.113608,9.814568,15.809021,-24.866882,37.810016,0.884478,0.003935,0.004793,0.466540
0.000368,-0.000329,0.000052,-0.047409,0.112391,9.820563,17.382184,-22.885738,38.084972,0.886637,0.003934,0.004776,0.462425
0.000368,0.000203,0.000585,-0.049187,0.119656,9.810972,16.983842,-26.017428,37.364562,0.884541,0.003900,0.004798,0.466422
0.000368,0.000203,0.000585,-0.047803,0.113619,9.806176,15.461761,-23.694317,37.431547,0.886022,0.003851,0.004747,0.463602
0.000368,0.000203,0.001117,-0.050487,0.102738,9.808574,16.413776,-23.096317,37.950540,0.887843,0.003841,0.004715,0.460106
0.000368,0.000203,-0.000480,-0.042138,0.117235,9.813370,16.767784,-23.877198,38.324747,0.887844,0.003928,0.004697,0.460103
0.000368,-0.000862,0.000052,-0.059018,0.108776,9.812171,17.001187,-23.671590,37.727813,0.888125,0.003842,0.004711,0.459562
0.000901,-0.000329,-0.000480,-0.048001,0.113614,9.809773,17.144931,-24.653818,38.310132,0.887887,0.003915,0.004633,0.460022
0.000368,-0.000329,0.000052,-0.041480,0.111181,9.821761,17.155528,-22.699663,38.677644,0.888440,0.003885,0.004600,0.458954
0.000368,0.000203,-0.000480,-0.044625,0.106359,9.812171,16.302816,-22.888931,36.599100,0.886895,0.003817,0.004651,0.461932
0.000368,0.000203,-0.000480,-0.045103,0.109972,9.821761,17.664763,-23.842393,36.334356,0.886585,0.003825,0.004669,0.462527
0.001433,-0.000329,-0.000480,-0.034613,0.105131,9.826557,16.383890,-23.492262,38.343624,0.885123,0.003793,0.004687,0.465318
0.000901,-0.000329,-0.000480,-0.052448,0.105136,9.822960,15.218713,-23.120820,38.408780,0.884964,0.003706,0.004799,0.465620
0.000368,0.000203,0.000052,-0.043242,0.094252,9.827756,17.412070,-22.489792,37.691888,0.886310,0.003753,0.004769,0.463053
0.000368,0.000203,0.000052,-0.035469,0.111181,9.821761,15.842758,-22.908465,37.788706,0.883594,0.003820,0.004867,0.468214
0.000368,0.000736,0.000052,-0.048380,0.109980,9.815767,15.258244,-23.503980,37.635397,0.883324,0.003716,0.004980,0.468723
0.000368,0.000203,0.000052,-0.061587,0.111189,9.815767,17.464143,-24.822845,36.162170,0.884667,0.003716,0.004977,0.466182
-0.000165,0.000203,0.000052,-0.047227,0.106354,9.815767,15.999996,-23.107326,38.362501,0.884171,0.003771,0.004885,0.467123
-0.000165,0.000203,-0.000480,-0.047607,0.112386,9.824159,16.262333,-25.239032,36.624672,0.884018,0.003799,0.004915,0.467411
0.000368,0.000203,-0.000480,-0.053189,0.109980,9.815767,15.355709,-24.494732,38.995361,0.885705,0.003799,0.004917,0.464206
0.000368,-0.000329,0.000585,-0.053090,0.112399,9.814568,16.043377,-21.928014,37.960893,0.888469,0.003856,0.004863,0.458895
0.000368,-0.000329,0.000052,-0.039453,0.103951,9.804978,16.036630,-22.319697,37.965155,0.887823,0.003852,0.004840,0.460143
-0.000165,0.000203,-0.000480,-0.053599,0.114832,9.802580,15.399091,-23.315419,38.593752,0.887498,0.003833,0.004946,0.460769
0.000368,-0.000329,-0.000480,-0.046963,0.111193,9.812171,16.210260,-22.905979,38.154390,0.889307,0.003851,0.004896,0.457268
0.000368,0.000203,0.000052,-0.053962,0.112407,9.808574,16.630788,-22.503287,37.738166,0.889698,0.003821,0.004926,0.456507
0.000368,0.000203,-0.000480,-0.053156,0.112397,9.815767,17.254832,-22.290931,37.118092,0.889031,0.003817,0.004894,0.457805
0.000368,0.000203,0.000052,-0.052086,0.117227,9.819364,16.190018,-24.081030,38.167176,0.886944,0.003796,0.004876,0.461835
0.000901,0.000203,0.000052,-0.043587,0.103938,9.814568,15.291028,-24.278823,36.866276,0.888165,0.003759,0.004824,0.459485
-0.000165,0.000203,0.000052,-0.049879,0.107557,9.820563,16.764887,-22.706410,38.700784,0.891302,0.003785,0.004847,0.453369
0.000368,-0.000329,0.000052,-0.050341,0.112379,9.830153,16.624040,-22.894970,37.742428,0.891016,0.003808,0.004856,0.453931
0.000368,0.000203,0.000052,-0.049582,0.105147,9.814568,17.211451,-23.470243,37.519701,0.891097,0.003777,0.004854,0.453772
0.000368,0.000203,-0.000480,-0.049912,0.105139,9.820563,17.828748,-23.649571,36.903889,0.890928,0.003807,0.004864,0.454103
0.000901,-0.000329,-0.000480,-0.045910,0.114815,9.815767,16.978048,-23.675852,38.116635,0.889971,0.003838,0.004878,0.455974
0.000368,-0.000329,-0.000480,-0.057568,0.107574,9.807375,18.126833,-23.659872,38.436040,0.890126,0.003748,0.004902,0.455672
0.000368,-0.000329,0.000052,-0.049599,0.113604,9.816966,16.319208,-23.276353,36.214539,0.888547,0.003784,0.004867,0.458744
0.000901,-0.000862,0.000052,-0.055774,0.106351,9.818165,16.968403,-22.896747,38.496934,0.888985,0.003740,0.004863,0.457895
0.000368,-0.000329,0.000052,-0.050108,0.116037,9.804978,16.383890,-23.492262,38.343624,0.888056,0.003763,0.004841,0.459695
0.000368,-0.000329,0.000052,-0.044427,0.106364,9.808574,17.018532,-21.325751,38.091063,0.888527,0.003696,0.004822,0.458784
0.000368,0.000203,0.000052,-0.063843,0.107567,9.812171,15.718303,-23.484447,36.445790,0.885454,0.003628,0.004903,0.464687
0.000368,-0.000329,-0.000480,-0.042452,0.113603,9.818165,15.528281,-22.510743,36.641116,0.886442,0.003731,0.004777,0.462800
0.000368,-0.000862,0.000052,-0.055692,0.107561,9.816966,15.935314,-22.891417,36.233416,0.886833,0.003632,0.004820,0.462051
0.000368,-0.001395,-0.000480,-0.044839,0.109979,9.816966,16.952012,-22.509325,38.881494,0.887075,0.003653,0.004786,0.461587
-0.000697,-0.000329,0.000052,-0.053568,0.106346,9.821761,15.838907,-24.470936,37.416932,0.885236,0.003549,0.004865,0.465104
-0.000165,-0.000862,0.000585,-0.052728,0.103921,9.827756,16.377143,-23.883945,38.347886,0.887023,0.003601,0.004847,0.461685
0.000901,-0.000329,-0.000480,-0.053139,0.108773,9.814568,16.764887,-22.706410,38.700784,0.887708,0.003646,0.004857,0.460368
0.000368,0.000203,-0.000480,-0.053138,0.099107,9.812171,17.001187,-23.671590,37.727813,0.886559,0.003616,0.004843,0.462575
0.000368,-0.000329,0.000052,-0.051163,0.106346,9.821761,16.774531,-23.485515,38.320485,0.885899,0.003700,0.004836,0.463839
0.000368,0.000203,0.000052,-0.056219,0.102716,9.825358,16.647179,-22.890708,37.353605,0.885252,0.003714,0.004838,0.465072
-0.000165,-0.000329,0.000052,-0.046042,0.114812,9.818165,15.080764,-24.480169,37.074387,0.883986,0.003805,0.004796,0.467473
-0.000165,-0.000329,-0.000480,-0.047309,0.105144,9.816966,16.122439,-22.694332,36.414127,0.886799,0.003779,0.004788,0.462115
0.000368,-0.000329,0.000585,-0.048281,0.112399,9.814568,15.508039,-23.685793,36.653902,0.886502,0.003809,0.004820,0.462683
0.000368,-0.000329,0.000585,-0.051524,0.109991,9.807375,16.830454,-24.256095,37.162542,0.888295,0.003792,0.004807,0.459233
-0.000697,0.000203,0.000052,-0.046253,0.105169,9.797785,17.631979,-23.067551,37.103477,0.888958,0.003800,0.004783,0.457948
0.000368,0.000203,0.000585,-0.050438,0.106364,9.808574,16.430168,-23.483738,37.565979,0.887174,0.003826,0.004829,0.461395
0.000368,-0.000862,0.000585,-0.040886,0.111195,9.810972,15.311270,-23.103772,36.853490,0.887385,0.003874,0.004813,0.460988
0.000368,-0.000862,0.000052,-0.054506,0.111186,9.818165,17.314605,-21.499040,36.331923,0.889048,0.003818,0.004879,0.457772
0.000368,0.000203,0.000052,-0.050751,0.112397,9.815767,16.305714,-24.059720,36.223063,0.885844,0.003790,0.004881,0.463943
0.000901,-0.000329,-0.000480,-0.049959,0.107583,9.800182,16.233399,-22.901717,37.765567,0.886572,0.003783,0.004852,0.462549
0.000368,-0.000329,0.000585,-0.053947,0.107546,9.828955,17.528825,-25.038754,38.291255,0.886275,0.003780,0.004851,0.463119
0.000368,-0.000329,0.000585,-0.051756,0.112402,9.812171,16.531484,-22.912018,39.297718,0.886252,0.003823,0.004821,0.463162
-0.000165,-0.000862,0.001117,-0.047095,0.106357,9.813370,16.166879,-24.085292,38.555998,0.885434,0.003807,0.004798,0.464725
-0.000697,0.000203,0.000052,-0.044592,0.108776,9.812171,15.315120,-21.541301,37.225264,0.886357,0.003835,0.004830,0.462962
-0.000165,-0.000329,0.000052,-0.047079,0.107566,9.813370,16.811165,-22.697886,37.923139,0.885952,0.003840,0.004874,0.463736
0.000368,-0.000329,-0.000480,-0.044971,0.109975,9.819364,16.029882,-22.711380,37.969417,0.884338,0.003842,0.004922,0.466806
-0.000165,-0.000329,-0.000480,-0.048842,0.109969,9.824159,15.625746,-23.501495,38.001080,0.883654,0.003805,0.004974,0.468100
0.000368,0.000203,-0.000480,-0.053304,0.111186,9.818165,15.799376,-24.087777,38.190315,0.884408,0.003818,0.004994,0.466672
0.000368,0.000203,-0.000480,-0.048034,0.116030,9.810972,16.938517,-23.292692,38.890018,0.885687,0.003851,0.004954,0.464241
0.000901,-0.000329,-0.000480,-0.055445,0.111192,9.813370,16.006743,-22.715642,38.358239,0.884496,0.003780,0.004962,0.466506
0.000368,-0.000862,0.000585,-0.053585,0.109971,9.822960,16.069413,-23.094540,37.196034,0.883895,0.003782,0.004921,0.467644
-0.000165,-0.000329,0.000052,-0.051921,0.114815,9.815767,16.436916,-23.092055,37.561717,0.883511,0.003791,0.004909,0.468370
0.000901,0.000203,-0.000480,-0.050669,0.113608,9.814568,15.655633,-23.105549,37.607996,0.882418,0.003760,0.004896,0.470426
0.000901,-0.000862,0.000052,-0.055560,0.112397,9.815767,15.849505,-22.516781,37.784444,0.882404,0.003721,0.004861,0.470452
-0.000165,-0.000862,0.000052,-0.046979,0.105152,9.810972,14.486606,-24.296579,37.301376,0.881373,0.003696,0.004815,0.472382
-0.000165,-0.000862,0.000052,-0.047079,0.112399,9.814568,15.422230,-23.311157,38.204930,0.884464,0.003743,0.004833,0.466568
-0.000165,-0.000329,-0.000480,-0.048231,0.101526,9.810972,15.898680,-23.679046,36.630763,0.885541,0.003703,0.004855,0.464522
0.000368,0.000203,0.000585,-0.050619,0.107567,9.812171,15.130892,-22.909173,36.668517,0.886452,0.003769,0.004886,0.462779
-0.000165,-0.000329,0.000585,-0.045301,0.105134,9.824159,16.016388,-23.494747,37.977941,0.888013,0.003806,0.004863,0.459776
0.000368,-0.000862,-0.000480,-0.053651,0.109969,9.824159,17.047465,-23.663066,36.950168,0.889086,0.003834,0.004912,0.457698
0.000368,-0.000329,0.000585,-0.048248,0.105150,9.812171,17.347389,-22.273883,35.562802,0.888915,0.003844,0.004903,0.458030
-0.000697,-0.000862,-0.000480,-0.046766,0.116031,9.809773,17.625232,-23.459234,37.107739,0.886608,0.003845,0.004955,0.462478
0.000368,-0.000329,-0.000480,-0.049269,0.113612,9.810972,17.842243,-22.866204,36.895365,0.884726,0.003761,0.005018,0.466070
0.000368,-0.000329,-0.001013,-0.055709,0.111186,9.818165,16.696355,-24.052972,36.199924,0.881344,0.003669,0.005063,0.472434
0.000368,-0.000329,0.000585,-0.054589,0.114808,9.820563,15.101006,-23.305119,37.061601,0.880402,0.003661,0.005042,0.474187
-0.000165,-0.000329,0.000052,-0.059315,0.111186,9.818165,14.539631,-23.896372,36.519469,0.881131,0.003631,0.005006,0.472832
-0.000697,0.000203,0.000585,-0.051706,0.116028,9.812171,15.632494,-23.109811,37.996818,0.883652,0.003693,0.004925,0.468104
-0.000165,-0.000862,-0.000480,-0.057305,0.112413,9.803779,15.645988,-22.326444,37.988294,0.883971,0.003662,0.004899,0.467501
0.000368,0.000203,-0.000480,-0.053155,0.107564,9.814568,15.254394,-25.066451,37.263622,0.883409,0.003661,0.004856,0.468563
-0.000165,-0.000329,-0.000480,-0.051213,0.112386,9.824159,16.256538,-22.897455,37.376745,0.886404,0.003718,0.004795,0.462873
-0.000165,-0.000329,0.000052,-0.054357,0.102731,9.813370,16.811165,-22.697886,37.923139,0.886038,0.003695,0.004779,0.463574
-0.000165,0.000203,0.000052,-0.055857,0.109974,9.820563,15.137639,-22.517490,36.664255,0.884465,0.003768,0.004764,0.466567
-0.000165,-0.000329,0.000585,-0.055282,0.117209,9.833750,15.949867,-24.678321,38.768372,0.885160,0.003835,0.004682,0.465248
-0.000697,-0.000862,0.000585,-0.045252,0.108760,9.824159,16.883480,-23.855888,36.380635,0.887042,0.003849,0.004579,0.461650
0.000368,-0.000862,0.000052,-0.051937,0.113606,9.815767,16.564267,-23.686861,38.528597,0.886939,0.003858,0.004603,0.461848
0.000368,-0.000329,-0.000480,-0.043720,0.108768,9.818165,16.196765,-23.689346,38.162914,0.887140,0.003848,0.004549,0.461463
0.000368,-0.000862,-0.000480,-0.042402,0.112396,9.816966,17.047465,-23.663066,36.950168,0.887969,0.003837,0.004551,0.459866
0.000368,-0.000329,0.000052,-0.046685,0.106338,9.827756,16.400282,-23.879683,37.959064,0.887571,0.003758,0.004582,0.460632
-0.000165,0.000203,0.000052,-0.037412,0.111192,9.813370,16.705114,-23.498301,39.486953,0.888368,0.003770,0.004575,0.459095
0.000368,-0.000862,0.000052,-0.052679,0.107547,9.827756,16.026032,-24.273852,37.597642,0.888418,0.003684,0.004635,0.458997
0.000368,0.000203,-0.000480,-0.045054,0.108765,9.820563,17.214348,-24.641032,37.143664,0.890404,0.003712,0.004589,0.455133
-0.000165,0.000203,-0.001013,-0.047144,0.102731,9.813370,16.503436,-21.908480,36.771286,0.891332,0.003683,0.004584,0.453313
-0.000697,-0.000862,-0.000480,-0.054341,0.108773,9.814568,18.143225,-24.047293,38.051480,0.890478,0.003712,0.004595,0.454988
0.000368,0.000203,-0.000480,-0.046765,0.106365,9.807375,15.932417,-21.720629,36.609453,0.889387,0.003739,0.004563,0.457117
-0.000165,0.000203,0.000052,-0.044558,0.101527,9.809773,16.850696,-23.081045,37.149756,0.888818,0.003738,0.004554,0.458222
-0.000165,-0.000329,0.000052,-0.042500,0.100311,9.815767,17.171920,-23.087084,38.293084,0.888249,0.003781,0.004577,0.459323
-0.000165,-0.000329,0.000052,-0.045136,0.107555,9.821761,17.060960,-22.879699,36.941644,0.887054,0.003816,0.004641,0.461627
-0.000165,-0.000329,0.000052,-0.043918,0.113597,9.822960,17.698499,-21.883976,36.313046,0.885508,0.003807,0.004676,0.464585
0.000368,-0.000862,-0.000480,-0.046371,0.105138,9.821761,15.475255,-22.910950,37.423023,0.881332,0.003707,0.004731,0.472459
-0.000165,-0.000862,0.000052,-0.046751,0.106337,9.828955,16.192915,-25.251818,37.791139,0.881161,0.003710,0.004765,0.472778
-0.000165,-0.000329,0.000052,-0.051559,0.106337,9.828955,15.461761,-23.694317,37.431547,0.882330,0.003731,0.004794,0.470592
-0.000165,0.000203,0.000052,-0.047343,0.112393,9.819364,16.092552,-23.090278,36.807211,0.883311,0.003793,0.004776,0.468747
0.000901,-0.000862,-0.000480,-0.051081,0.102723,9.819364,16.226652,-23.293401,37.769829,0.882754,0.003772,0.004775,0.469796
0.000901,0.000203,0.000052,-0.051296,0.111176,9.825358,15.377790,-21.920198,36.063059,0.882088,0.003820,0.004780,0.471045
0.001433,-0.000329,-0.000480,-0.049714,0.109977,9.818165,15.546684,-22.735176,39.547846,0.881098,0.003817,0.004738,0.472895
-0.000165,-0.000329,0.000052,-0.047705,0.100301,9.822960,15.819618,-22.912727,38.177529,0.880586,0.003799,0.004707,0.473848
-0.000165,-0.000329,0.000052,-0.042121,0.108778,9.810972,14.650591,-24.103757,37.870910,0.879712,0.003889,0.004732,0.475467
0.000901,-0.000329,0.000585,-0.043423,0.116025,9.814568,16.446560,-23.871159,37.181419,0.882014,0.003911,0.004759,0.471183
0.000368,-0.000329,0.000585,-0.048050,0.119654,9.812171,15.855299,-24.858358,37.032371,0.881507,0.003818,0.004776,0.472131
-0.000165,0.000203,0.000052,-0.047309,0.105144,9.816966,15.695164,-23.488709,36.834613,0.882930,0.003740,0.004740,0.469466
-0.000165,-0.000329,0.000052,-0.049483,0.112399,9.814568,15.658530,-24.276337,37.231959,0.883442,0.003785,0.004744,0.468501
0.000368,-0.000329,-0.000480,-0.046190,0.103934,9.818165,16.433066,-24.654526,37.189943,0.884994,0.003788,0.004717,0.465563
0.000368,-0.000862,0.000585,-0.043687,0.111186,9.818165,16.547876,-23.299440,38.913157,0.886016,0.003827,0.004735,0.463615
-0.000165,-0.000329,0.000052,-0.047046,0.109983,9.813370,14.266697,-23.718821,37.889787,0.885595,0.003761,0.004785,0.464419
-0.000697,-0.000862,0.000052,-0.047409,0.107558,9.819364,16.453307,-23.479476,37.177157,0.889361,0.003781,0.004778,0.457164
0.000368,-0.000329,-0.000480,-0.048067,0.113612,9.810972,16.877685,-21.514312,37.132708,0.890017,0.003795,0.004821,0.455886
0.000368,-0.000862,-0.000480,-0.058509,0.106343,9.824159,15.875541,-23.683308,37.019585,0.887782,0.003706,0.004852,0.460224
-0.000165,-0.000329,-0.000480,-0.046635,0.105131,9.826557,17.359045,-22.890000,38.473795,0.889243,0.003779,0.004796,0.457394
-0.000165,-0.000329,0.000052,-0.054770,0.106346,9.821761,16.677066,-22.494763,36.960521,0.887754,0.003781,0.004854,0.460276
0.000901,0.000203,-0.001013,-0.047838,0.114797,9.828955,16.522725,-23.466690,36.010689,0.886552,0.003835,0.004843,0.462587
-0.000165,-0.000329,-0.000480,-0.046041,0.105145,9.815767,16.536219,-22.683323,36.002165,0.886437,0.003768,0.004836,0.462808
-0.000165,-0.000329,0.000052,-0.045597,0.118447,9.810972,15.592963,-22.726652,38.770201,0.885368,0.003772,0.004897,0.464850
0.000368,0.000736,0.000052,-0.054275,0.108775,9.813370,16.863238,-25.030938,36.393421,0.885692,0.003664,0.004929,0.464232
0.000368,0.000203,-0.000480,-0.050520,0.105153,9.809773,17.005037,-22.109118,38.099587,0.886554,0.003694,0.004881,0.462584
0.000368,0.000203,0.000052,-0.044674,0.112399,9.814568,16.413776,-23.096317,37.950540,0.884049,0.003693,0.004905,0.467353
-0.000165,0.000203,0.000052,-0.062676,0.103913,9.833750,16.062666,-23.486223,37.200296,0.883124,0.003604,0.004951,0.469099
-0.000165,0.000203,0.000585,-0.047392,0.108767,9.819364,14.867603,-23.510727,37.658536,0.883046,0.003730,0.004868,0.469246
-0.000697,-0.000862,0.000052,-0.048215,0.107567,9.812171,16.223754,-22.122613,38.145866,0.885024,0.003750,0.004873,0.465504
0.000368,-0.000329,0.000052,-0.044116,0.113592,9.826557,16.994440,-24.063273,37.732075,0.883498,0.003746,0.004936,0.468393
-0.000165,0.000203,0.000052,-0.052086,0.112394,9.818165,15.921820,-23.674784,36.241940,0.882623,0.003646,0.004999,0.470040
-0.000165,0.000736,0.000052,-0.048248,0.109983,9.813370,14.950515,-22.714574,36.483544,0.882868,0.003628,0.004990,0.469581
-0.000165,0.000203,-0.000480,-0.062575,0.112402,9.812171,15.461761,-23.694317,37.431547,0.883742,0.003615,0.005003,0.467933
-0.000165,-0.000329,-0.001013,-0.046056,0.110007,9.795387,16.344359,-23.109103,39.117007,0.885038,0.003674,0.004897,0.465478
-0.000697,-0.000862,0.000052,-0.054111,0.120861,9.813370,17.014682,-22.888223,37.719289,0.884474,0.003621,0.004951,0.466548
-0.000165,-0.000329,0.000052,-0.054753,0.102722,9.820563,13.968613,-23.708520,36.357636,0.882422,0.003506,0.004951,0.470420
0.000901,0.000203,-0.000480,-0.068308,0.107547,9.827756,16.686710,-23.273868,36.580222,0.886040,0.003600,0.004926,0.463569
-0.000165,-0.000329,0.000585,-0.046899,0.095459,9.828955,15.836010,-23.300148,37.792968,0.885355,0.003696,0.004781,0.464876
-0.000697,-0.000329,0.000052,-0.045038,0.124473,9.824159,16.386787,-24.663050,37.967588,0.885979,0.003808,0.004837,0.463685
-0.000165,-0.000862,0.000052,-0.052464,0.099094,9.821761,16.122439,-22.694332,36.414127,0.887301,0.003675,0.004849,0.461150
-0.000165,-0.000862,0.000052,-0.056680,0.108775,9.813370,15.999996,-23.107326,38.362501,0.887160,0.003767,0.004880,0.461421
0.000901,0.000203,0.000052,-0.045087,0.111181,9.821761,16.617293,-23.286654,37.746690,0.887685,0.003822,0.004849,0.460410
0.000368,-0.000329,-0.000480,-0.052020,0.112396,9.816966,16.360751,-23.496524,38.732447,0.887512,0.003765,0.004878,0.460744
0.000368,-0.000329,0.000052,-0.046008,0.107563,9.815767,16.039527,-23.490485,37.589118,0.887946,0.003746,0.004862,0.459906
0.000368,-0.000329,-0.000480,-0.049764,0.111184,9.819364,16.166879,-24.085292,38.555998,0.888986,0.003731,0.004904,0.457892
-0.000165,-0.000329,0.000052,-0.058754,0.113615,9.808574,16.857443,-22.689362,37.145494,0.890680,0.003708,0.004909,0.454589
-0.000165,-0.000329,0.000052,-0.055247,0.111197,9.809773,16.995393,-21.330013,38.479886,0.890086,0.003706,0.004858,0.455751
0.000368,-0.000862,0.000585,-0.048232,0.116025,9.814568,16.217007,-22.514296,38.150128,0.887474,0.003683,0.004850,0.460818
0.000368,-0.000329,-0.000480,-0.052085,0.102728,9.815767,15.035438,-21.755433,38.599843,0.886986,0.003569,0.004880,0.461756
0.000368,-0.000329,-0.000480,-0.044231,0.109964,9.827756,16.334714,-22.329998,39.497306,0.887487,0.003602,0.004893,0.460793
0.000368,0.000203,-0.000480,-0.051295,0.101510,9.822960,16.023135,-23.103064,37.973679,0.886563,0.003502,0.004971,0.462569
0.000901,0.000203,-0.000480,-0.055725,0.109977,9.818165,15.931464,-24.453888,35.861642,0.886850,0.003531,0.004999,0.462016
0.001433,-0.000329,0.000052,-0.055890,0.107557,9.820563,17.953203,-23.073589,38.246806,0.888823,0.003522,0.004954,0.458210
0.000901,-0.000329,0.000052,-0.059711,0.111176,9.825358,16.941414,-24.463481,38.513982,0.886516,0.003464,0.004949,0.462658
-0.000165,0.000203,-0.000480,-0.055675,0.108770,9.816966,16.210260,-22.905979,38.154390,0.886831,0.003435,0.004886,0.462055
0.000368,0.000203,0.000052,-0.052036,0.106354,9.815767,14.670833,-22.928707,37.858124,0.886639,0.003423,0.004858,0.462425
-0.000165,-0.000329,-0.000480,-0.051771,0.101527,9.809773,17.171920,-23.087084,38.293084,0.889040,0.003422,0.004837,0.457791
-0.000165,-0.000329,-0.000480,-0.054060,0.100322,9.807375,17.435210,-22.485530,37.303065,0.888003,0.003427,0.004874,0.459799
0.000901,-0.000329,-0.000480,-0.048396,0.108771,9.815767,16.377143,-23.883945,38.347886,0.885594,0.003448,0.004908,0.464422
0.000368,0.000203,0.000052,-0.060682,0.099099,9.818165,15.465611,-22.131845,37.803321,0.885950,0.003362,0.004941,0.463741
0.000368,-0.000329,0.000052,-0.048066,0.108779,9.809773,16.062666,-23.486223,37.200296,0.885913,0.003452,0.004894,0.463813
-0.000697,-0.000329,-0.000480,-0.058327,0.100306,9.819364,16.735000,-23.102355,39.093868,0.886419,0.003378,0.004932,0.462846
0.000368,-0.000329,0.000052,-0.049532,0.103940,9.813370,16.006743,-22.715642,38.358239,0.885510,0.003452,0.004932,0.464581
-0.000165,-0.000329,-0.000480,-0.054341,0.099107,9.812171,15.064372,-24.092748,37.458948,0.885144,0.003425,0.004980,0.465278
-0.000165,-0.000329,-0.000480,-0.061339,0.100320,9.808574,17.089008,-23.883237,39.468075,0.887814,0.003518,0.004987,0.460163
-0.000165,-0.000329,-0.000480,-0.049073,0.107547,9.827756,15.806124,-23.696094,38.186053,0.887569,0.003630,0.004955,0.460633
0.000901,0.000203,-0.000480,-0.061769,0.107560,9.818165,17.395679,-22.102371,38.076448,0.889111,0.003633,0.004990,0.457650
0.000368,-0.000329,0.000052,-0.056614,0.113609,9.813370,16.383890,-23.492262,38.343624,0.886588,0.003659,0.004931,0.462519
0.000368,-0.000329,-0.000480,-0.047062,0.103941,9.812171,15.488750,-22.127583,37.414499,0.886768,0.003638,0.004886,0.462175
-0.000697,-0.000329,-0.000480,-0.048446,0.105145,9.815767,15.592963,-22.726652,38.770201,0.886883,0.003636,0.004941,0.461953
-0.000165,0.000736,-0.001013,-0.046715,0.105158,9.806176,16.416674,-24.267105,37.574503,0.887554,0.003663,0.004996,0.460663
0.000368,0.000203,-0.000480,-0.050751,0.107564,9.814568,15.560179,-21.951809,39.539322,0.888719,0.003688,0.005038,0.458411
0.000901,-0.000329,-0.000480,-0.061818,0.108767,9.819364,16.330864,-23.892469,39.125531,0.888936,0.003688,0.005061,0.457989
0.000368,-0.000329,0.000052,-0.053073,0.103941,9.812171,16.434018,-21.921266,37.937754,0.890151,0.003745,0.004989,0.455623
0.000368,-0.000329,-0.000480,-0.048578,0.114808,9.820563,16.935620,-22.121904,39.266055,0.889206,0.003785,0.005016,0.457463
-0.000165,-0.000329,-0.000480,-0.062938,0.105144,9.816966,16.173626,-23.693608,38.551736,0.887461,0.003692,0.005065,0.460840
0.000368,-0.000329,0.000052,-0.063235,0.112386,9.824159,15.933476,-24.290900,39.152932,0.888398,0.003819,0.005003,0.459031
0.000368,-0.000329,0.000052,-0.054836,0.106345,9.822960,16.954909,-23.680114,38.505458,0.890588,0.003905,0.004893,0.454768
0.000368,-0.000329,-0.000480,-0.050570,0.111193,9.812171,17.132389,-22.703925,39.066467,0.890984,0.003985,0.004869,0.453991
0.001433,-0.000329,-0.000480,-0.042567,0.105142,9.818165,16.565220,-20.953601,39.276408,0.890074,0.003990,0.004877,0.455773
0.000368,-0.000329,0.000052,-0.061720,0.116019,9.819364,17.007934,-23.279906,37.723551,0.887699,0.003956,0.004968,0.460381
-0.000697,-0.000329,0.000585,-0.042336,0.112397,9.815767,16.587407,-23.682599,38.139774,0.886913,0.003995,0.004877,0.461893
0.000901,0.000203,-0.000480,-0.047195,0.123271,9.819364,14.608163,-22.549809,39.020329,0.887083,0.003978,0.004949,0.461567
0.000901,-0.000329,-0.000480,-0.042221,0.111192,9.813370,16.390637,-23.100579,38.339362,0.889307,0.003879,0.004921,0.457267
-0.000165,-0.000329,0.000052,-0.056828,0.107563,9.815767,16.170729,-22.522820,38.927773,0.889621,0.003804,0.004993,0.456656
-0.000165,-0.000862,0.000052,-0.053271,0.108770,9.816966,16.351106,-22.717419,39.112745,0.889713,0.003872,0.004974,0.456476
-0.000165,-0.000862,0.000052,-0.055990,0.119637,9.825358,17.033085,-23.112656,40.626019,0.889761,0.003910,0.004991,0.456383
0.000368,-0.000329,-0.000480,-0.045021,0.111182,9.820563,14.575379,-21.774966,39.789450,0.889189,0.003865,0.004968,0.457497
0.000368,-0.000329,-0.000480,-0.051577,0.119627,9.832551,16.702217,-22.327512,39.862989,0.891002,0.003836,0.005018,0.453955
0.001433,0.000203,-0.000480,-0.052299,0.101515,9.819364,16.581612,-21.341023,38.891847,0.890276,0.003734,0.005027,0.455377
0.000368,-0.000329,-0.000480,-0.053106,0.111190,9.814568,16.684872,-24.673351,39.499739,0.888364,0.003755,0.005057,0.459098
0.000368,-0.000329,0.001650,-0.054852,0.105136,9.822960,16.157234,-23.306187,38.936297,0.889700,0.003753,0.005056,0.456503
0.000368,0.000203,0.000052,-0.053946,0.113615,9.808574,15.229310,-21.166665,38.776292,0.890715,0.003813,0.005059,0.454518
0.000901,0.000203,-0.000480,-0.049632,0.111187,9.816966,17.569309,-22.688653,38.265683,0.890968,0.003795,0.005043,0.454023
0.000368,-0.000329,0.000052,-0.062592,0.116026,9.813370,15.826366,-22.521043,38.173267,0.889276,0.003730,0.005078,0.457327
0.000368,-0.000329,-0.000480,-0.047310,0.109977,9.818165,15.960465,-22.724166,39.135884,0.889812,0.003732,0.004996,0.456285
0.000368,0.000203,0.000585,-0.054589,0.114808,9.820563,16.617293,-23.286654,37.746690,0.890459,0.003686,0.005047,0.455020
0.000368,0.000203,0.000052,-0.062049,0.111178,9.824159,16.764887,-22.706410,38.700784,0.890830,0.003638,0.005025,0.454295
-0.000697,-0.000329,-0.000480,-0.054655,0.114807,9.821761,18.581097,-21.298762,37.998507,0.890384,0.003658,0.004951,0.455169
-0.000165,-0.000329,0.000052,-0.062082,0.103927,9.822960,16.036630,-22.319697,37.965155,0.885238,0.003569,0.004981,0.465099
0.000368,0.000203,0.000052,-0.049945,0.112388,9.822960,14.864705,-22.339939,38.034572,0.884269,0.003661,0.004933,0.466938
-0.000165,-0.000329,0.000585,-0.055609,0.103938,9.814568,15.705761,-21.534554,37.202125,0.885133,0.003624,0.004926,0.465298
0.000368,-0.000329,0.000052,-0.052367,0.120845,9.825358,16.046274,-23.098802,37.584856,0.883748,0.003677,0.004926,0.467922
-0.000165,0.000736,-0.001013,-0.050143,0.107550,9.825358,15.311270,-23.103772,36.853490,0.883343,0.003563,0.004899,0.468689
0.000368,0.000203,0.000052,-0.059925,0.109963,9.828955,15.674922,-24.663759,36.847399,0.884088,0.003576,0.004893,0.467280
-0.000165,0.000203,0.000585,-0.039008,0.112419,9.798983,15.658530,-24.276337,37.231959,0.886105,0.003631,0.004793,0.463445
0.000368,0.000203,0.000052,-0.052792,0.105156,9.807375,15.708658,-22.705342,36.826089,0.888160,0.003535,0.004860,0.459496
-0.000165,-0.000329,-0.000480,-0.057783,0.106360,9.810972,16.413776,-23.096317,37.950540,0.888833,0.003551,0.004844,0.458192
-0.000165,-0.000329,0.000052,-0.048677,0.107557,9.820563,17.848990,-22.474521,36.891103,0.888946,0.003595,0.004803,0.457972
-0.000165,-0.000329,0.000585,-0.056828,0.107563,9.815767,14.826060,-23.290556,35.140628,0.886068,0.003542,0.004855,0.463517
-0.000165,-0.000329,0.000052,-0.053023,0.107567,9.812171,16.099300,-22.698594,36.802949,0.888453,0.003596,0.004801,0.458928
0.000368,0.000203,0.000052,-0.044362,0.100295,9.827756,16.542967,-22.291640,35.997903,0.888539,0.003606,0.004792,0.458763
-0.000165,-0.000862,0.000052,-0.046124,0.108768,9.818165,16.880583,-22.685100,36.756671,0.887422,0.003608,0.004864,0.460918
-0.000697,-0.000862,0.000052,-0.055480,0.107538,9.834949,17.224946,-22.686877,37.511177,0.885963,0.003537,0.004944,0.463715
0.000368,-0.000329,0.000052,-0.049072,0.102714,9.826557,15.872644,-22.512519,37.395622,0.883619,0.003535,0.004972,0.468167
0.000368,-0.000329,0.000585,-0.051887,0.102733,9.812171,15.258244,-23.503980,37.635397,0.882763,0.003533,0.005032,0.469779
0.000368,-0.000329,0.000052,-0.057620,0.107544,9.830153,17.077352,-23.267120,36.557083,0.883925,0.003572,0.005058,0.467587
0.000368,-0.000862,0.000052,-0.053271,0.108770,9.816966,15.018094,-24.101272,38.236593,0.882042,0.003580,0.005052,0.471131
-0.000165,-0.000329,0.000052,-0.055050,0.100298,9.825358,15.799376,-24.087777,38.190315,0.884108,0.003586,0.005059,0.467241
0.000368,0.000203,-0.000480,-0.056286,0.107547,9.827756,15.915072,-24.066467,36.246202,0.885300,0.003691,0.005074,0.464977
0.000368,0.000203,-0.000480,-0.044097,0.116037,9.804978,17.054213,-23.271382,36.945906,0.886532,0.003752,0.005042,0.462625
-0.000165,0.000203,0.000052,-0.055642,0.106354,9.815767,17.421715,-23.268897,37.311589,0.885284,0.003627,0.005111,0.465008
0.000901,-0.000329,0.000052,-0.060600,0.109975,9.819364,16.062666,-23.486223,37.200296,0.883176,0.003655,0.005127,0.469000
0.000901,-0.000329,-0.000480,-0.053618,0.112386,9.824159,15.137639,-22.517490,36.664255,0.883060,0.003684,0.005075,0.469218
0.000368,-0.000329,0.000052,-0.044988,0.113600,9.820563,17.283766,-24.628246,35.977197,0.883371,0.003653,0.005066,0.468632
0.000368,-0.000862,-0.000480,-0.069427,0.103924,9.825358,15.297775,-23.887139,36.862014,0.882575,0.003542,0.005143,0.470130
-0.000165,0.000203,-0.000480,-0.064190,0.106351,9.818165,15.838907,-24.470936,37.416932,0.884060,0.003692,0.005040,0.467332
0.000368,-0.000329,0.000585,-0.030644,0.112390,9.821761,15.842758,-22.908465,37.788706,0.885612,0.003840,0.004937,0.464384
0.000368,-0.000329,-0.000480,-0.053947,0.107546,9.828955,16.023135,-23.103064,37.973679,0.885752,0.003685,0.005112,0.464115
0.000368,-0.000862,0.000052,-0.064108,0.122060,9.820563,16.085805,-23.481961,36.811473,0.885834,0.003704,0.005129,0.463960
0.000368,-0.000329,0.000052,-0.069642,0.107544,9.830153,15.645988,-22.326444,37.988294,0.886263,0.003659,0.005036,0.463141
0.000368,0.000203,-0.001013,-0.051295,0.106343,9.824159,16.804418,-23.089569,37.927401,0.886219,0.003786,0.004908,0.463225
0.000901,0.000203,0.000052,-0.041891,0.120866,9.809773,15.291028,-24.278823,36.866276,0.885132,0.003820,0.004913,0.465299
-0.000165,-0.000862,-0.000480,-0.047540,0.102722,9.820563,15.577456,-23.673007,35.487434,0.887598,0.003683,0.004931,0.460578
0.000368,-0.000329,0.000052,-0.064107,0.107561,9.816966,17.090846,-22.483753,36.548559,0.889450,0.003728,0.004993,0.456990
-0.000165,-0.000329,-0.000480,-0.048314,0.119648,9.816966,17.257729,-23.461719,36.742056,0.887921,0.003805,0.004920,0.459953
-0.000165,0.000736,0.000585,-0.054902,0.106343,9.824159,16.653927,-22.499025,37.349343,0.886906,0.003698,0.004943,0.461908
0.000901,-0.000329,-0.000480,-0.059068,0.114816,9.814568,16.148475,-23.860859,35.649268,0.885522,0.003754,0.004922,0.464555
0.001433,-0.000862,0.000052,-0.043901,0.105139,9.820563,16.210260,-22.905979,38.154390,0.886208,0.003757,0.004835,0.463246
0.000901,-0.000329,0.001117,-0.044608,0.107567,9.812171,16.249791,-23.289139,37.381007,0.885869,0.003711,0.004905,0.463894
-0.000165,-0.000329,0.001117,-0.048726,0.108764,9.821761,16.857443,-22.689362,37.145494,0.885832,0.003658,0.004966,0.463966
0.000368,-0.000329,0.000585,-0.059051,0.106359,9.812171,17.031074,-23.275644,37.334728,0.884081,0.003620,0.005024,0.467292
-0.000165,0.000203,0.000585,-0.042006,0.102739,9.807375,15.695164,-23.488709,36.834613,0.882346,0.003659,0.004999,0.470561
-0.000165,0.000203,0.000052,-0.066611,0.119641,9.821761,16.095450,-24.261066,36.431175,0.882672,0.003665,0.005099,0.469948
0.000368,-0.000329,0.000052,-0.040589,0.103952,9.803779,14.696870,-24.095233,37.093265,0.883262,0.003693,0.004959,0.468840
0.000368,0.000736,-0.000480,-0.059348,0.113601,9.819364,15.970109,-23.503271,38.755586,0.886144,0.003691,0.005049,0.463367
-0.000165,-0.000329,-0.001013,-0.052613,0.097883,9.824159,16.349095,-22.880407,35.821455,0.886867,0.003717,0.004964,0.461984
-0.000165,-0.000329,0.000052,-0.049038,0.120867,9.808574,17.077352,-23.267120,36.557083,0.886406,0.003834,0.005000,0.462866
-0.000697,-0.000329,-0.000480,-0.052960,0.106332,9.832551,17.031074,-23.275644,37.334728,0.885118,0.003723,0.005022,0.465325
0.000901,-0.000329,0.000585,-0.059053,0.109955,9.834949,16.784176,-24.264619,37.940187,0.883620,0.003769,0.005058,0.468163
-0.000165,-0.000862,-0.000480,-0.048793,0.113595,9.824159,16.245941,-24.851611,37.009232,0.883330,0.003811,0.005007,0.468709
0.000368,0.000203,0.000585,-0.044875,0.111157,9.839744,15.754937,-22.696818,36.048444,0.884452,0.003789,0.005040,0.466589
0.000368,-0.000329,0.000585,-0.056583,0.114790,9.834949,16.132083,-23.473437,36.033828,0.884242,0.003742,0.005100,0.466985
0.000368,-0.000329,0.000052,-0.051098,0.116014,9.822960,15.124145,-23.300857,36.672779,0.884251,0.003729,0.005071,0.466969
0.000368,0.000203,-0.001013,-0.060732,0.114805,9.822960,15.419332,-22.140369,38.580966,0.885757,0.003679,0.005070,0.464108
0.000368,-0.000329,-0.001013,-0.063268,0.114802,9.825358,15.833113,-22.129360,38.169005,0.885742,0.003687,0.004992,0.464136
0.000368,-0.000862,0.000585,-0.043142,0.107574,9.807375,15.865897,-22.904203,37.399884,0.885008,0.003704,0.004898,0.465535
0.000368,-0.000862,0.000052,-0.052910,0.105125,9.831352,16.095450,-24.261066,36.431175,0.884979,0.003648,0.004986,0.465589
0.000368,0.000203,-0.000480,-0.052976,0.105124,9.832551,15.999996,-23.107326,38.362501,0.886072,0.003685,0.005003,0.463506
-0.000165,0.000203,0.000052,-0.048232,0.116025,9.814568,17.221096,-24.249348,37.139402,0.886286,0.003734,0.005003,0.463095
0.000368,-0.000329,0.000585,-0.047934,0.108782,9.807375,16.850696,-23.081045,37.149756,0.885858,0.003661,0.005027,0.463915
-0.000165,-0.000329,0.000052,-0.069494,0.118422,9.830153,16.469699,-23.866897,36.792596,0.884589,0.003607,0.005090,0.466329
-0.000165,-0.000329,0.000585,-0.045169,0.100305,9.820563,15.508039,-23.685793,36.653902,0.884558,0.003639,0.004950,0.466390
-0.000165,-0.000329,0.000585,-0.052943,0.107541,9.832551,16.603798,-24.070020,37.755214,0.885916,0.003690,0.005029,0.463805
0.000368,-0.000862,0.001117,-0.051725,0.108750,9.832551,16.774531,-23.485515,38.320485,0.886201,0.003723,0.005045,0.463259
0.000368,-0.000329,0.000585,-0.071585,0.117221,9.824159,16.276780,-21.722405,37.363959,0.885628,0.003710,0.005085,0.464353
0.000368,-0.001395,0.000052,-0.035716,0.097884,9.822960,15.829263,-23.691832,37.797230,0.883640,0.003753,0.004937,0.468126
0.000368,-0.000329,-0.000480,-0.070053,0.122062,9.819364,15.577456,-23.673007,35.487434,0.884269,0.003747,0.005122,0.466934
-0.000165,-0.000862,0.000585,-0.038993,0.107558,9.819364,15.921820,-23.674784,36.241940,0.885437,0.003775,0.004953,0.464718
0.000368,-0.000862,0.000052,-0.061753,0.118434,9.820563,15.882289,-23.291624,37.015323,0.886288,0.003726,0.005084,0.463092
-0.000165,-0.000329,-0.000480,-0.055626,0.102730,9.814568,16.679963,-23.665551,36.584484,0.886959,0.003707,0.005011,0.461806
0.000368,-0.000329,-0.000480,-0.041726,0.123286,9.807375,16.864191,-22.297678,37.141232,0.886900,0.003800,0.005016,0.461919
0.000901,-0.000862,0.000585,-0.060995,0.100300,9.824159,15.271739,-22.720613,37.626873,0.884898,0.003585,0.005102,0.465743
-0.000165,-0.000329,-0.000480,-0.065013,0.114818,9.813370,15.294878,-22.716351,37.238050,0.885651,0.003692,0.005077,0.464309
0.000368,0.000203,0.000052,-0.041793,0.102716,9.825358,17.171920,-23.087084,38.293084,0.886523,0.003747,0.004975,0.462643
-0.000165,-0.000862,-0.000480,-0.054754,0.112388,9.822960,16.049171,-24.269590,37.208820,0.884919,0.003730,0.005088,0.465703
0.000368,-0.000329,-0.000480,-0.051970,0.106356,9.814568,17.054213,-23.271382,36.945906,0.886087,0.003739,0.005090,0.463477
0.001433,0.000203,0.000052,-0.063037,0.112391,9.820563,15.761684,-22.305134,36.044182,0.884774,0.003751,0.005133,0.465977
0.000901,0.000203,0.000052,-0.062791,0.100286,9.834949,16.062666,-23.486223,37.200296,0.884174,0.003781,0.005041,0.467116
0.000368,-0.000329,0.000052,-0.030545,0.109975,9.819364,15.448266,-24.477684,37.440071,0.884343,0.003954,0.004962,0.466795
0.000368,-0.000862,0.000585,-0.053089,0.107566,9.813370,16.108944,-23.477699,36.422651,0.886620,0.003870,0.005122,0.462455
0.000368,-0.000329,-0.000480,-0.065442,0.117224,9.821761,17.224946,-22.686877,37.511177,0.887225,0.003914,0.005149,0.461292
0.000368,-0.000862,-0.000480,-0.033492,0.114824,9.808574,15.741442,-23.480185,36.056968,0.885246,0.003944,0.005060,0.465079
0.000901,-0.000329,0.000052,-0.059497,0.122056,9.824159,16.259435,-24.068244,37.000708,0.886129,0.003803,0.005225,0.463394
-0.000165,0.000203,0.000052,-0.066167,0.107541,9.832551,16.171614,-23.856597,35.260445,0.887006,0.003739,0.005162,0.461714
0.000368,-0.000329,0.000052,-0.049056,0.108756,9.827756,17.047465,-23.663066,36.950168,0.888000,0.003881,0.005065,0.459798
0.000368,0.000203,-0.000480,-0.049879,0.117223,9.822960,15.625746,-23.501495,38.001080,0.887605,0.003883,0.005114,0.460562
0.000368,0.000203,0.000052,-0.069329,0.125675,9.828955,17.007934,-23.279906,37.723551,0.889224,0.003842,0.005114,0.457427
0.000368,0.000203,-0.000480,-0.034415,0.105136,9.822960,17.372539,-22.106633,38.465271,0.888733,0.003825,0.004948,0.458382
0.000368,0.000203,0.000052,-0.057637,0.116001,9.832551,15.428977,-22.919474,38.200668,0.886128,0.003729,0.005123,0.463396
-0.000165,-0.000329,-0.000480,-0.064536,0.114801,9.826557,16.272930,-23.284877,36.992184,0.887105,0.003720,0.005068,0.461524
0.000901,-0.000329,0.000052,-0.057455,0.105131,9.826557,15.862999,-21.733415,37.775920,0.887306,0.003767,0.004973,0.461139
